svm_type c_svc
kernel_type linear
nr_class 3
total_sv 5783
rho -0.357095 0.649637 0.941157
label 1 2 0
nr_sv 2022 941 2820
SV
0.892931768533187 1 2031:1 4670:1 5360:1 5377:1 5515:1 10371:1 13483:1 13490:2 13491:4 13492:-0.254 13493:-0.062 13494:-0.062 13495:-0.172 13497:1 13502:1 13507:1 13509:4 13513:1 13523:1 13526:1 
0 0.3865067137013229 2389:1 5604:1 7720:1 8165:1 9827:1 11540:1 12423:1 12895:1 13482:3 13483:1 13490:8 13491:8 13492:1.25 13493:-0.332 13494:-0.332 13495:0.256 13497:1 13502:1 13507:5 13508:1 13509:4 13512:1 13513:1 13523:1 
0.1613982286251496 0.7938756502066003 2031:1 3223:1 5360:1 5604:1 5668:1 9062:1 10709:1 12958:1 13371:1 13482:1 13490:7 13491:9 13492:0.213 13493:-0.25 13494:-0.25 13495:-1.143 13502:1 13507:6 13508:1 13513:1 13526:2 
0 0.7593889000484066 1033:1 4104:1 4863:1 7719:1 11978:1 13490:17 13491:2 13492:0.898 13493:0.449 13494:0.449 13495:0.449 13509:5 
0 0.8181986589228119 2009:1 4639:2 4747:1 5377:1 6675:1 7604:1 8005:1 8135:1 8191:1 8331:1 9825:1 11987:1 12110:1 13482:2 13484:1 13485:1 13490:4 13491:10 13492:-2.289 13493:0.449 13494:0.449 13495:-0.502 13497:1 13507:7 13509:5 13515:1 13527:1 
0 0.412693721257603 88:1 2394:1 3474:1 4830:1 7375:1 7985:1 8158:1 11294:1 12110:2 12423:1 13482:3 13486:1 13490:4 13491:11 13492:1.069 13493:0.449 13494:0.449 13495:0.084 13507:3 13508:3 13509:3 13515:1 13523:1 13527:1 
0.03952173151679759 0.06914641261415738 1092:1 4315:1 5604:2 6090:1 11096:1 12560:1 12704:2 13108:1 13482:2 13490:5 13491:7 13492:-0.536 13493:0.276 13494:0.276 13495:0.2 13507:2 13509:4 13513:2 13515:1 13523:1 13526:1 
0 0.03756108446609493 5389:1 5604:1 6552:1 8018:1 8057:1 8347:1 11838:1 12046:1 13482:1 13490:7 13491:5 13492:1.656 13493:-0.096 13494:-0.096 13495:0.738 13507:4 13509:3 13513:1 13527:1 
0.05643388568813485 0.4104815928585817 578:1 3066:1 7184:1 7357:1 8948:1 12013:1 13483:1 13486:1 13490:3 13491:4 13492:0.032 13493:0.241 13494:0.241 13495:0.138 13507:5 13509:3 
0 0.06718408700989488 654:1 1609:1 4069:1 5604:2 6904:1 10044:1 10297:1 11887:1 12673:1 13196:1 13351:1 13482:2 13490:4 13491:9 13492:1.319 13493:0.58 13494:0.58 13495:-0.062 13502:1 13507:3 13508:1 13509:3 13513:2 13523:1 13524:1 13525:2 
0.7213025731191014 0.8634889834878591 427:1 5604:2 8821:1 10437:1 12013:1 13482:2 13490:3 13491:4 13492:-0.626 13493:0.449 13494:0.449 13495:-0.771 13502:1 13507:3 13509:1 13513:2 13526:1 
0.3677256209977637 0.2245293707767348 2403:1 3648:1 5256:1 6225:1 7995:1 8045:1 8750:1 10692:1 11641:1 11769:1 13490:1 13491:12 13492:0.564 13493:0.19 13494:0.19 13495:0.75 13497:1 13507:6 13513:1 13515:1 13523:1 13524:1 13525:1 13526:1 
0 0.08020853394604641 1967:1 4633:1 5377:1 8089:1 8670:1 8983:2 9236:1 10190:1 11256:1 11896:1 13490:2 13491:9 13492:0.347 13493:-0.062 13494:-0.062 13495:-0.156 13498:1 13502:1 13507:3 13509:7 13513:1 13523:2 13526:1 
0 1 1488:1 2966:1 5235:1 7767:1 8153:1 8618:1 9657:1 13490:2 13491:8 13492:0.282 13493:-0.062 13494:-0.062 13495:0.042 13497:3 13502:1 13507:2 13508:1 13509:3 13524:1 
0 0.112981156097676 2139:1 2537:1 4138:1 4207:1 4256:1 4400:1 8742:1 11631:1 12110:1 12898:1 13094:1 13490:6 13491:8 13492:3.158 13493:1.254 13494:1.254 13495:-0.141 13502:2 13507:1 13508:2 13509:3 13524:1 13526:2 
0.4945185750913838 0.6615483322143356 249:1 419:1 2654:1 3850:1 6040:1 6173:1 11315:1 12185:1 13482:2 13486:1 13490:5 13491:6 13492:-0.513 13493:-0.062 13494:-0.062 13495:-0.184 13496:1 13507:3 13509:6 13527:1 
0.2054844407663239 0.4143759554553185 709:1 2050:1 2359:1 5261:1 5604:2 6051:1 8045:1 9575:1 11037:1 13482:2 13490:5 13491:4 13492:-0.438 13493:-0.062 13494:-0.062 13495:-0.277 13507:2 13509:6 13512:1 13513:2 13515:1 13526:1 
0.3372435577646444 0 1211:1 1539:1 2349:1 5604:1 6971:1 8347:1 10759:1 11540:1 12943:1 13065:1 13482:2 13483:1 13484:1 13490:2 13491:11 13492:0.308 13493:0.451 13494:0.451 13495:-0.085 13502:2 13507:3 13508:1 13509:4 13512:2 13513:3 13526:2 13527:1 13531:1 
0.01361066585860373 1 1825:2 4045:1 5847:1 7144:1 7281:1 10256:2 11978:1 12013:1 13108:1 13490:7 13491:7 13492:1.199 13493:-0.096 13494:-0.096 13495:0.138 13502:1 13507:4 13509:6 13523:1 
0 1 1442:1 1688:1 2292:1 4531:1 4730:1 4776:1 5476:1 10605:1 12286:1 12966:1 13490:2 13491:7 13492:0.654 13493:0.449 13494:0.449 13495:0.109 13496:1 13497:1 13502:2 13507:3 13509:8 13512:1 
0.009860241782172713 0.03286142648887527 2967:1 3720:1 4957:1 5157:1 5337:1 5520:1 5604:1 7522:1 8135:1 8147:1 9888:1 10437:1 12359:1 12588:1 12826:1 13373:1 13482:2 13484:1 13485:1 13486:1 13490:6 13491:7 13492:0.087 13493:-0.376 13494:-0.376 13495:0.443 13497:1 13507:3 13509:11 13513:1 13515:1 13522:1 13531:1 
0.5953595203764084 0.860441951340319 4304:1 5481:1 6093:1 6515:1 6923:1 12110:1 13482:1 13486:1 13490:2 13491:2 13492:0.359 13493:-0.151 13494:-0.151 13495:0.51 13507:3 13509:3 13524:1 
0 1 2481:1 4259:1 4922:2 5104:1 5519:2 7768:1 8689:1 10569:1 11978:1 12271:1 13044:2 13490:5 13491:6 13492:0.541 13493:-0.162 13494:-0.162 13495:0.041 13502:1 13507:2 13508:3 13509:6 13524:1 13526:1 
0.01905241390555355 1 2073:1 3482:1 7766:1 8083:1 8793:1 8834:1 11540:1 12894:1 13486:1 13490:2 13491:6 13492:1.359 13493:0.422 13494:0.422 13495:-0.826 13497:1 13498:1 13502:1 13507:2 13509:5 13527:1 
0 1 4719:1 8045:1 9243:2 9407:1 10506:1 12110:1 13482:1 13490:5 13491:7 13492:1.799 13493:0.422 13494:0.422 13495:-0.194 13502:2 13507:4 13508:1 13509:4 13512:2 13523:1 
0 0.2872320737479319 1111:1 4944:1 5194:1 6497:1 7248:1 9546:1 10011:1 10288:1 11088:1 11542:1 12351:1 13482:3 13483:1 13486:1 13490:5 13491:8 13492:2.037 13493:0.334 13494:0.334 13495:0.422 13507:3 13508:1 13509:9 
0.5142378709845169 0.1206103516936488 656:1 4268:1 4679:2 7248:1 8323:1 10011:1 13490:1 13491:5 13492:0.021 13493:-0.173 13494:-0.173 13495:-0.062 13507:4 13509:3 
0.143810375721417 0.9068102980984765 643:1 821:1 5295:1 6870:1 12110:1 13351:1 13490:5 13491:6 13492:0.93 13493:-0.059 13494:-0.059 13495:0.16 13496:1 13507:5 13509:2 
0.06972357432842791 0.8588384488820178 688:1 6005:1 6214:1 6767:1 6848:1 7495:1 7854:1 8433:1 12990:1 13486:2 13490:2 13491:5 13492:1.341 13493:0.449 13494:0.449 13495:0.573 13497:1 13502:1 13507:1 13509:11 13513:1 13518:1 13527:1 
0.1525450517714594 0.1864034275938558 88:1 147:1 581:1 4739:1 8243:1 8645:1 8742:1 9266:1 10283:1 13482:3 13484:1 13490:6 13491:11 13492:1.699 13493:0.2 13494:0.2 13495:0.014 13496:2 13507:3 13508:1 13509:5 13515:1 13527:1 
0.07238271533362071 0 656:1 964:1 1664:1 2792:1 5258:1 5295:1 5724:1 8042:1 8602:1 11087:1 12013:1 13490:4 13491:11 13492:1.747 13493:1.024 13494:1.024 13495:-0.474 13501:1 13502:1 13507:6 13509:4 13513:2 13524:1 13526:1 13527:1 
0 0.4130999211253268 83:1 287:1 364:1 782:2 1292:1 3828:1 4921:1 9797:1 13358:1 13482:2 13486:3 13490:2 13491:10 13492:1.279 13493:0.449 13494:0.449 13495:0.062 13497:4 13502:1 13508:1 13509:11 
0 1 452:1 1953:1 6402:1 10267:1 12013:1 12933:1 13410:1 13482:1 13490:4 13491:6 13492:2.083 13493:-0.062 13494:-0.062 13495:0.376 13497:1 13502:1 13507:1 13509:4 13513:2 13522:1 13526:1 
0.5365711539883615 0 249:1 1124:1 1912:1 3737:1 4562:1 5099:1 5604:1 6971:1 8135:1 10916:1 11039:1 12110:1 13482:1 13485:1 13490:2 13491:11 13492:-2.199 13493:-0.151 13494:-0.151 13495:-0.558 13498:1 13502:2 13507:2 13508:1 13509:2 13512:1 13513:1 13515:3 13523:1 
0 0.2589348783028682 1204:1 2655:1 3936:1 4434:1 4922:1 5520:1 5604:1 7670:1 7854:1 9834:1 11879:1 12110:1 13482:5 13486:1 13490:4 13491:6 13492:0.4 13493:0.197 13494:0.197 13495:-0.148 13506:1 13507:2 13508:1 13509:4 13513:1 13524:1 13525:1 13531:1 
0 0.2900528657964144 1356:1 3834:1 3852:1 4096:1 5073:1 5325:1 5515:1 6005:1 8314:1 8747:1 11896:1 13253:1 13488:1 13490:5 13491:11 13492:4.16 13493:0.603 13494:0.603 13495:0.449 13498:1 13502:3 13507:5 13509:4 13513:1 13523:1 13526:1 13527:1 
0 0.4696450674782785 629:1 782:1 1222:1 2234:1 4054:1 4921:1 5376:1 6064:1 7243:1 9856:1 13108:1 13490:3 13491:8 13492:3.613 13493:0.351 13494:0.351 13495:0.422 13497:1 13502:1 13507:5 13509:6 
0.1414003062743234 0 730:1 1529:1 2958:1 6727:1 8083:1 8964:1 10535:1 12119:1 12898:1 13490:3 13491:5 13492:1.181 13493:1.147 13494:1.147 13495:-0.826 13497:1 13498:1 13502:1 13507:3 13509:2 13513:1 13524:1 13525:1 13526:1 
0.09353649472072297 0.2708430587899395 3478:1 4848:1 4962:1 8863:1 9449:1 11896:1 12511:1 12956:1 13370:1 13490:8 13491:4 13492:2.396 13493:0.449 13494:0.449 13495:0.083 13498:1 13507:6 13509:5 
0.1987931062861464 0.5030469570581658 2372:1 5051:1 6617:1 7212:1 8390:1 8637:1 12336:1 12885:1 13486:1 13490:1 13491:6 13492:0.482 13493:-0.062 13494:-0.062 13495:0.2 13507:2 13508:2 13509:5 
0 0.0548179107253248 369:1 2046:1 2888:1 3219:1 6589:1 6834:1 6926:1 8232:1 11542:1 11591:1 11877:1 11883:1 13146:1 13483:1 13484:1 13490:1 13491:18 13492:1.702 13493:0.87 13494:0.87 13495:-0.476 13497:4 13502:1 13507:5 13508:2 13509:3 13523:1 13524:1 13527:1 
0.06272895895161636 0.1955840896399396 2407:1 6334:1 7626:1 8083:1 10380:1 11209:1 13108:1 13327:1 13486:1 13490:5 13491:7 13492:2.035 13493:0.449 13494:0.449 13495:0.276 13498:1 13507:2 13508:1 13509:6 13527:1 
0 0.01678755788706898 361:1 2930:1 2977:1 3231:1 3471:1 5127:1 5347:1 5604:1 6071:1 6634:1 7480:1 7678:1 9836:1 13482:1 13490:1 13491:9 13492:2.568 13493:0.633 13494:0.633 13495:0.179 13497:1 13501:1 13507:4 13508:2 13509:4 13513:1 13523:1 13526:1 
0.5143793267635453 0.3371791853631957 839:1 1843:1 4315:1 5604:1 7570:1 8135:1 8781:1 8955:1 11800:1 11929:1 13482:1 13485:1 13490:3 13491:8 13492:-1.818 13493:0.147 13494:0.147 13495:-0.596 13502:2 13507:2 13508:1 13509:3 13513:1 13515:1 13522:1 13525:1 
0.1990466136812014 0.5150463804112294 178:1 1967:1 2070:1 4622:1 6378:1 6807:1 8380:1 13490:5 13491:8 13492:-1.697 13493:0.097 13494:0.097 13495:0.191 13497:1 13507:7 13508:1 13509:1 
0 1 692:1 5604:1 12286:1 12336:1 13146:1 13482:1 13490:2 13491:1 13492:0.18 13493:0.18 13494:0.18 13495:0.18 13502:1 13509:3 13513:1 13526:1 
0.07666726945205614 0.5906638156774435 677:1 1822:1 1825:1 2968:1 4045:1 4549:1 4735:1 5604:1 9089:1 9929:1 10256:1 10535:1 12110:1 12803:1 13482:1 13486:1 13490:6 13491:11 13492:3.358 13493:-0.062 13494:-0.062 13495:0.422 13501:1 13502:1 13507:4 13508:2 13509:4 13513:2 13525:1 13526:2 
0 0.2728101602877775 190:1 1578:1 1787:1 4207:1 4590:1 5604:1 7766:1 9668:1 11340:1 12898:1 13094:1 13482:1 13490:4 13491:5 13492:2.937 13493:0.65 13494:0.65 13495:0.586 13497:1 13501:1 13504:1 13507:2 13509:3 13513:1 13523:1 13524:1 
1 1 2022:1 3222:1 4531:1 5604:1 12858:1 12894:1 13482:1 13490:5 13491:6 13492:-0.039 13493:0.197 13494:0.197 13495:-0.878 13497:1 13507:4 13508:1 13509:2 13513:1 13526:1 
0 0.2923019067968929 2654:1 2967:1 4591:1 6040:1 11775:1 12185:1 12685:1 12894:1 13482:1 13486:1 13490:10 13491:7 13492:1.204 13493:-0.062 13494:-0.062 13495:0.153 13497:1 13502:1 13506:1 13507:6 13509:5 13513:1 13522:1 
0 0.03464249241758798 2337:2 3842:1 3852:1 4727:1 5604:1 8153:1 8280:1 13482:1 13488:1 13490:5 13491:8 13492:-2.525 13493:-0.387 13494:-0.387 13495:-1.049 13497:1 13501:1 13502:1 13507:5 13509:1 13513:1 13526:1 
0.1237323632988687 0 1801:1 2031:1 2232:1 3491:1 5360:1 5604:1 8158:1 11028:1 11030:1 11391:1 11887:1 12110:1 13482:1 13490:5 13491:10 13492:-4.223 13493:-0.062 13494:-0.062 13495:-0.107 13506:1 13507:1 13508:1 13509:3 13513:2 13515:1 13522:2 13523:1 13524:2 13526:1 
0 0.3398901967281668 1203:1 1428:1 8633:1 8907:1 11542:1 11557:1 12242:1 13486:2 13490:2 13491:5 13492:2.134 13493:0.461 13494:0.461 13495:-0.145 13507:5 13509:3 
0 1 4622:1 6214:1 8018:1 10335:1 13484:1 13486:1 13490:4 13491:5 13492:2.412 13493:0.974 13494:0.974 13495:0.422 13497:1 13507:1 13509:7 
0.164322631562679 1 3117:1 4342:1 12110:1 12885:1 13490:2 13491:2 13492:-0.687 13493:-0.151 13494:-0.151 13495:-0.536 13507:2 13509:3 
0 0.4898605780455084 42:1 1222:1 3008:1 3199:1 3526:1 4742:1 5724:1 6684:1 7714:1 8153:1 11896:1 11956:1 12174:1 13190:1 13490:4 13491:9 13492:2.82 13493:-0.096 13494:-0.096 13495:0.573 13496:1 13498:1 13502:2 13503:1 13507:2 13509:8 13524:1 
0.08484879449873889 1 1037:1 2951:1 4492:1 4859:1 5604:1 7369:1 12110:1 13482:1 13490:4 13491:10 13492:2.17 13493:0.603 13494:0.603 13495:0.603 13498:1 13502:3 13507:3 13509:2 13513:2 13523:1 13526:1 13527:1 
0 0.5052567101672244 2566:1 3692:1 4509:1 6638:1 7662:1 7726:1 8705:1 9158:1 9220:1 13490:3 13491:5 13492:1.222 13493:-0.062 13494:-0.062 13495:0.308 13507:4 13509:5 13526:1 
0.2443177079837948 0 1439:1 1838:1 4240:1 5604:1 6585:1 7007:1 8045:1 8135:1 10770:1 12110:1 12657:1 13146:1 13482:1 13485:1 13486:1 13490:3 13491:9 13492:-1.626 13493:0.627 13494:0.627 13495:0.119 13501:1 13502:1 13507:7 13508:1 13509:2 13513:2 13515:1 13527:1 
0.2206927961539335 0 773:1 2481:1 2967:1 3800:1 3852:1 4123:1 4843:1 5604:1 5983:1 6616:1 6767:1 8243:1 11933:1 13482:1 13488:1 13489:1 13490:1 13491:7 13492:0.341 13493:0.123 13494:0.123 13495:-0.197 13497:2 13498:1 13502:2 13507:4 13508:1 13509:3 13513:1 13515:1 13527:1 
0.2323444523536199 0.8450893695885867 1028:1 2215:1 2958:1 5233:1 5581:1 6727:1 6888:1 7681:1 7988:1 13407:1 13490:5 13491:5 13492:0.186 13493:-0.096 13494:-0.096 13495:-0.062 13502:1 13507:1 13509:7 13513:1 13523:1 
0 0.2355089184696032 1203:1 2967:1 3708:1 4093:1 4481:1 4537:1 6953:1 7699:1 7896:1 8153:1 10345:1 11892:1 12966:1 13373:1 13482:1 13490:3 13491:15 13492:3.05 13493:-0.062 13494:-0.062 13495:0.422 13496:1 13507:6 13508:2 13509:7 
0.2364548711397102 0 1843:1 3718:1 4747:1 5476:1 5604:1 7162:1 8911:1 11542:1 12803:1 13482:1 13486:1 13490:4 13491:3 13492:0.692 13493:0.2 13494:0.2 13495:0.316 13502:1 13507:1 13509:7 13513:1 13526:1 
0.2519264838556159 0.5820007894361732 3373:1 7498:1 9629:1 9944:1 10073:1 10196:1 10229:1 10684:1 11896:1 12964:1 13292:2 13482:2 13486:1 13490:4 13491:3 13492:-0.344 13493:-0.093 13494:-0.093 13495:-0.189 13498:1 13502:1 13507:1 13509:9 13513:1 13523:1 13526:1 
0 0.202550303252434 6326:1 6603:1 6647:1 6669:1 6843:1 7591:1 8769:1 10190:1 10468:1 11191:1 13482:1 13490:1 13491:11 13492:1.6 13493:0.483 13494:0.483 13495:0.603 13497:1 13507:3 13509:5 13515:1 13523:2 13525:1 
0.72357235658245 1 3718:1 4639:1 7162:1 9454:1 9474:1 13482:1 13484:1 13490:1 13491:4 13492:0.114 13493:0.045 13494:0.045 13495:0.336 13497:1 13507:3 13509:2 
0.3624898450407019 0.4169804731708318 839:1 5645:1 8045:1 9236:1 9468:1 10060:1 11254:1 11391:1 11507:1 11978:1 13486:1 13490:8 13491:7 13492:-1.333 13493:0.221 13494:0.221 13495:0.19 13501:1 13502:1 13507:1 13509:5 13515:1 13524:1 13526:1 
0.02774858403923334 0 821:1 4793:2 4848:1 5261:1 6904:1 7854:1 8135:1 12382:2 12719:1 13192:1 13321:1 13373:1 13482:1 13484:1 13485:1 13490:4 13491:16 13492:4.498 13493:0.603 13494:0.603 13495:0.603 13502:1 13507:6 13509:5 13515:1 13522:1 13527:1 
0.4206366110451578 0.1479597417158452 839:1 3372:1 4638:1 5442:1 5604:1 6585:1 6662:1 7719:1 8135:1 8482:1 10884:1 12110:1 12657:1 12964:1 12966:1 13482:1 13490:4 13491:13 13492:-3.104 13493:-0.189 13494:-0.189 13495:-0.472 13502:1 13507:6 13509:3 13513:2 13515:1 13523:1 13524:2 13526:1 
0.3247862569318646 0.7421254914510595 1576:1 1636:1 1764:1 4535:1 4846:1 5604:1 5961:1 6767:1 8045:1 12110:1 13089:1 13123:1 13482:1 13486:1 13490:4 13491:7 13492:0.114 13493:-0.062 13494:-0.062 13495:-0.151 13498:1 13507:5 13509:5 13513:1 13524:1 13526:1 13527:1 
0.9006000351413762 0.915053606989142 516:1 517:1 520:1 531:2 1974:2 2593:1 3877:1 4531:1 7179:1 12012:1 13482:2 13490:10 13491:6 13492:1.946 13493:-0.096 13494:-0.096 13495:0.432 13502:2 13507:4 13509:7 13512:1 13523:1 13527:1 
0.08336782054930122 0 1588:1 2403:1 2951:1 3224:1 3800:1 4171:1 5161:1 6928:1 7766:1 7988:1 12628:1 13101:1 13489:1 13490:3 13491:4 13492:0.839 13493:0.245 13494:0.245 13495:0.65 13497:1 13502:1 13507:3 13509:8 13524:1 
0.2365137684611805 1 469:1 5604:1 6784:1 9827:2 12713:1 13482:1 13490:4 13491:5 13492:2.048 13493:0.202 13494:0.202 13495:0.609 13497:1 13502:2 13509:3 13513:1 13515:1 13523:1 
0 0.09395459273547471 799:1 1375:1 2692:1 4531:1 5090:1 5154:1 5261:1 5299:1 7806:1 9022:1 10910:1 11009:1 11527:1 13490:3 13491:14 13492:2.694 13493:0.879 13494:0.879 13495:0.216 13507:8 13508:1 13509:4 13512:1 13513:1 13523:1 13526:1 
0 0.06721738309101785 775:1 1203:1 1531:1 1838:1 2669:1 4531:1 5668:1 6267:1 7369:1 9177:1 12374:1 13490:1 13491:15 13492:4.402 13493:0.451 13494:0.451 13495:0.274 13506:1 13507:5 13508:1 13509:3 13512:1 13513:3 13522:1 13524:1 13527:1 
0 1 27:1 4531:1 6904:1 8045:1 8382:1 10380:1 13490:5 13491:3 13492:-0.082 13493:0.19 13494:0.19 13495:0.58 13506:1 13507:3 13509:5 13513:1 13522:1 
0 0.1688345454658671 1434:1 1483:1 5082:1 5084:1 8742:1 10614:1 10986:1 11139:1 13482:1 13486:1 13491:8 13492:3.008 13493:0.232 13494:0.232 13495:0.95 13497:1 13507:6 13508:1 13509:3 13512:1 
0.3955834228013938 1 3718:1 7162:1 7930:1 8957:1 9474:1 11209:1 13482:1 13486:3 13490:5 13491:6 13492:-0.226 13493:-0.019 13494:-0.019 13495:0.2 13497:2 13506:1 13507:2 13508:2 13509:6 13513:1 
0.08461696176883582 1 1041:1 5604:1 5645:1 8953:1 11333:1 11542:1 11559:1 12506:1 13482:1 13486:1 13490:3 13491:2 13492:0.739 13493:0.742 13494:0.742 13495:-0.003 13501:1 13507:1 13508:2 13509:4 13513:1 
0 0.3931803511778217 1356:1 3968:1 5604:1 7681:1 10196:1 10229:1 13394:1 13482:1 13490:1 13491:3 13492:1.998 13493:0.474 13494:0.474 13495:0.372 13507:2 13509:3 13513:2 13525:1 13526:2 
0.1914370952115755 0.06159671398196076 199:1 2082:1 2112:1 3333:1 5604:1 6402:1 8760:1 9031:1 9297:1 9561:1 9657:1 12743:1 13482:1 13490:2 13491:8 13492:0.837 13493:-0.062 13494:-0.062 13495:-0.062 13502:2 13507:3 13509:6 13513:1 13515:1 13524:2 
0.2711392327249902 0.7983937773723992 1390:1 2139:1 2967:2 4894:1 5604:1 5691:1 6953:1 7988:1 8329:1 9736:1 13023:1 13358:1 13482:1 13486:1 13490:2 13491:10 13492:0.745 13493:0.442 13494:0.442 13495:0.411 13497:1 13501:1 13502:2 13507:4 13508:1 13509:3 13513:1 13525:1 13526:1 13531:1 
0 1 2967:1 4253:1 4256:1 4400:1 4986:1 5405:1 11542:1 13486:1 13490:1 13491:6 13492:0.657 13493:0.416 13494:0.416 13495:-0.561 13507:5 13508:1 13509:2 
0.2534558166268302 0.3873195420351702 1811:1 2593:1 3369:1 3682:1 4449:1 5746:1 6658:1 8083:1 10461:1 10904:1 12012:1 13204:1 13490:10 13491:11 13492:-0.216 13493:-0.654 13494:-0.654 13495:-0.213 13498:1 13507:4 13508:2 13509:6 13512:1 13523:1 13524:1 
0.02006248271631309 0 496:1 1473:1 1951:1 2967:1 4562:1 5157:1 5604:1 6225:1 6782:1 12255:1 12628:1 13065:1 13482:1 13490:2 13491:10 13492:2.18 13493:-0.062 13494:-0.062 13495:-0.848 13497:1 13507:1 13508:1 13509:9 13513:2 13523:1 13524:1 13526:1 
0.03839424966232169 1 1342:1 1487:1 2025:1 5604:1 6536:1 11764:1 12110:1 12799:1 13482:1 13486:1 13490:5 13491:3 13492:-0.433 13493:-0.151 13494:-0.151 13495:-0.867 13502:1 13507:3 13509:6 13512:1 13524:1 
0 0.1042599405363643 1619:1 1776:1 1919:1 2107:1 3491:1 4859:1 5478:1 6334:1 6917:1 8964:1 12110:1 13490:5 13491:10 13492:0.681 13493:0.449 13494:0.449 13495:-0.377 13502:3 13507:7 13509:3 13515:1 
0 0.1044202005724796 63:1 551:1 552:1 5610:1 5759:1 5955:1 6753:2 8147:1 8545:2 12754:1 13482:1 13490:6 13491:10 13492:2.744 13493:-0.096 13494:-0.096 13495:1.435 13497:2 13507:2 13508:1 13509:5 13523:1 13525:2 13527:1 
0 0.1759552542951548 1033:1 4863:1 5476:1 7719:1 13490:4 13491:4 13492:2.127 13493:0.2 13494:0.2 13495:0.474 13498:1 13507:3 13509:3 13512:1 
0.08535637084352195 0.2160725592347066 4784:1 5090:1 6051:1 6923:1 6973:1 9724:1 11481:1 13289:1 13486:1 13490:3 13491:6 13492:0.921 13493:0.51 13494:0.51 13495:0.025 13502:1 13507:5 13509:5 13512:1 13513:1 13524:1 13526:1 
0.05054368315284841 0.9136202550715017 2022:1 5645:1 6725:1 6848:1 7836:1 9930:1 11741:1 12110:1 13484:1 13490:4 13491:10 13492:0.105 13493:-0.151 13494:-0.151 13495:-0.041 13497:4 13501:1 13507:2 13508:2 13509:2 13523:1 13526:1 
0.03221267251873067 0.2091158125619321 153:1 643:1 644:1 962:1 2110:1 2137:1 2950:2 3643:1 4531:1 7224:1 11377:1 11378:1 12555:1 12587:1 13482:1 13490:1 13491:11 13492:0.556 13493:-0.822 13494:-0.822 13495:0.3 13502:2 13507:3 13508:4 13509:6 13523:1 
0 0.6643354328352538 1488:1 2403:1 2966:1 13490:1 13491:3 13492:1.115 13493:0.2 13494:0.2 13495:0.042 13497:1 13502:1 13509:1 13524:2 
0 0.3292727998121779 368:1 1950:1 2139:1 2913:1 3458:1 4000:1 4173:1 4212:1 7988:1 11219:1 13358:1 13484:1 13486:1 13491:6 13492:2.259 13493:0.383 13494:0.383 13495:0.339 13507:3 13509:11 
0.134825487342104 0.282352185917043 1014:1 2231:1 4827:1 5310:1 10345:1 10873:1 11870:1 13237:1 13410:1 13484:1 13486:1 13490:4 13491:7 13492:-0.247 13493:-0.062 13494:-0.062 13495:0.28 13497:2 13507:4 13508:1 13509:4 13513:1 13523:1 
0 0.008176000348067416 1539:1 8135:1 10597:1 11301:1 11542:1 12826:1 13485:1 13486:1 13490:2 13491:6 13492:0.344 13493:0.2 13494:0.2 13495:-0.753 13507:2 13508:2 13509:2 13515:1 13522:1 
0 0.2015430583491455 624:1 1271:1 2670:1 3838:1 4944:1 6457:1 8153:1 8421:1 9393:1 10696:1 13490:2 13491:7 13492:2.935 13493:-0.062 13494:-0.062 13495:0.963 13497:1 13502:1 13507:3 13509:7 
0.0375528328163305 1 458:1 3707:1 4811:1 6033:1 7662:1 7726:1 9220:1 9969:1 13490:1 13491:5 13492:0.99 13493:-0.062 13494:-0.062 13495:-0.15 13497:1 13502:1 13508:1 13509:7 13512:1 13523:1 13525:1 
0 0.3101016898635781 1902:2 4710:1 6778:1 8125:1 8338:1 8509:1 8717:1 10316:1 11978:1 12719:1 13484:1 13490:1 13491:7 13492:2.366 13493:-0.064 13494:-0.064 13495:0.274 13507:2 13508:2 13509:6 13526:1 
0.4989701632421011 0.8229082675414638 1185:1 2824:1 3418:1 5478:1 6662:1 7604:1 8135:1 12885:1 13485:1 13490:5 13491:5 13492:-3.849 13493:-0.421 13494:-0.421 13495:-0.965 13507:2 13509:3 13515:2 13527:1 
0.2026824880406736 0.01702561638078888 1427:1 2339:1 5476:1 5604:1 6087:1 6923:1 9207:1 11927:1 12500:1 13428:1 13482:2 13490:2 13491:7 13492:1.392 13493:0.2 13494:0.2 13495:-0.03 13497:1 13507:4 13508:1 13509:2 13513:1 13523:1 13526:1 13527:1 
0 0.2190884446299354 2172:1 4417:1 5604:2 6224:1 11737:1 12628:1 12860:1 13482:7 13483:1 13484:1 13490:3 13491:4 13492:1.566 13493:0.603 13494:0.603 13495:0.603 13502:1 13509:4 13513:2 13526:1 13527:1 
1 1 1442:1 4410:1 8135:1 10236:1 12110:1 12448:1 13108:1 13485:1 13490:4 13491:7 13492:-0.353 13493:-0.753 13494:-0.753 13495:-0.025 13507:2 13508:1 13509:2 13512:1 13515:1 13525:1 13526:1 
0.09647639557451101 1 419:1 2967:1 4863:1 8382:1 13484:1 13486:1 13490:6 13491:4 13492:0.576 13493:0.197 13494:0.197 13495:-0.001 13496:2 13502:1 13507:2 13509:4 13512:1 
0 0.1665505792635082 1955:1 2811:1 4093:1 5050:1 5521:1 6204:1 8045:2 10255:1 11978:1 13490:3 13491:6 13492:1.18 13493:0.19 13494:0.19 13495:0.2 13507:3 13509:8 
0.02115222494536828 1 2340:1 5332:1 6710:1 7604:1 7719:1 10761:1 11542:1 12057:1 13484:1 13490:7 13491:7 13492:-0.358 13493:0.197 13494:0.197 13495:1.063 13507:4 13508:1 13509:3 13513:1 13523:1 13526:1 
0.1120455331134238 0.1034152363436255 656:1 839:1 3237:1 4859:1 6971:1 8291:1 10014:1 11111:1 12110:1 12216:2 13490:10 13491:11 13492:-0.957 13493:-0.096 13494:-0.096 13495:0.06 13502:2 13507:5 13509:6 
0.1052693310066541 0 1010:1 4279:1 4578:1 5604:3 7366:1 7959:1 9062:1 10170:1 10726:1 11024:1 11542:2 12858:1 13146:1 13482:4 13490:3 13491:7 13492:-1.93 13493:0.319 13494:0.319 13495:-1.31 13501:1 13507:4 13508:1 13509:7 13513:3 13526:2 
0 0.4412482359226251 1701:1 2967:1 3226:1 4566:1 6981:1 9657:1 10345:1 12110:1 12374:1 12385:1 13482:1 13490:4 13491:9 13492:2.909 13493:-0.151 13494:-0.151 13495:0.608 13502:1 13507:5 13509:3 13515:1 13524:1 
0.2486520510511099 0.1907269132099209 945:1 2322:1 2375:1 3361:1 4882:1 6778:1 6928:1 8125:1 8860:1 12110:1 12317:1 13484:1 13490:4 13491:9 13492:2.602 13493:0.226 13494:0.226 13495:0.959 13502:2 13507:4 13508:2 13509:3 13513:1 13526:1 
0 0.160019570770651 1920:1 2020:1 5604:1 5622:1 5623:1 6088:1 6952:1 7988:1 8858:1 12568:1 13482:1 13490:3 13491:8 13492:0.249 13493:-0.538 13494:-0.538 13495:0.526 13502:1 13507:2 13508:3 13509:3 13513:1 13524:1 13526:1 
0.03519031058622032 0.3535419711552258 458:1 3707:1 4811:1 6033:1 7664:1 7726:1 9220:1 9969:1 13490:5 13491:5 13492:0.864 13493:-0.188 13494:-0.188 13495:-0.15 13497:1 13502:1 13507:1 13509:7 13512:1 13523:1 13525:1 
0.1915289876773504 0.7528268018351215 427:1 472:1 553:1 1764:1 5604:2 5851:1 6782:1 8339:1 11650:1 12317:1 12858:1 13255:1 13482:3 13484:1 13490:5 13491:11 13492:-0.63 13493:-0.162 13494:-0.162 13495:-0.043 13497:1 13499:1 13503:1 13507:2 13508:2 13509:5 13513:2 13515:1 13526:3 13527:1 
0.04319302092377905 0 1428:1 3376:1 4185:1 4639:1 6305:1 10494:1 11542:1 11557:1 12072:1 12119:1 12829:1 13482:3 13483:1 13486:1 13490:1 13491:5 13492:0.022 13493:-0.454 13494:-0.454 13495:-0.146 13507:2 13508:1 13509:6 13523:1 13524:2 13527:1 13529:1 
0 0.7196306885994855 1428:1 6834:1 7945:1 8061:1 8926:1 8957:1 9809:1 10380:1 10570:1 12894:1 13490:3 13491:8 13492:2.331 13493:-0.096 13494:-0.096 13495:0.136 13497:1 13502:3 13507:2 13508:1 13509:4 13523:1 13525:1 
0.2850039597476064 0.7666562884459956 1391:1 4531:1 6915:1 7281:1 8045:1 10380:1 11527:1 13490:4 13491:6 13492:1.137 13493:0.242 13494:0.242 13495:0.017 13502:1 13507:4 13509:4 13513:1 13526:1 
0.06473190978995727 0 821:1 1813:1 2481:1 2967:1 4450:1 4824:1 8964:1 9194:1 13484:1 13490:4 13491:8 13492:0.397 13493:0.2 13494:0.2 13495:0.183 13507:6 13509:3 13512:1 13524:1 
0.3206163882019445 0.5725993475300025 952:1 4859:1 4897:1 8077:1 8135:1 9123:1 10667:1 11855:1 13132:1 13482:2 13485:1 13490:3 13491:11 13492:0.359 13493:0.049 13494:0.049 13495:0.22 13496:1 13497:3 13507:6 13509:2 13515:1 13524:1 13527:1 
0 0.2182842060294928 2300:1 4043:1 5833:1 6051:1 8253:1 8827:1 10374:1 10418:1 11704:1 13057:2 13289:1 13490:5 13491:11 13492:4.549 13493:0.317 13494:0.317 13495:0.422 13497:1 13507:4 13509:10 
0.1768768142862242 1 868:1 1428:1 5604:1 6373:1 9827:1 10529:1 10570:1 11929:1 12663:1 13482:1 13490:9 13491:9 13492:0.833 13493:-0.062 13494:-0.062 13495:0.276 13502:2 13507:6 13509:2 13513:1 13515:1 13524:1 13526:1 
0 0.3300608523055528 465:1 1953:1 2339:1 4775:1 4989:1 5210:1 10380:1 11502:1 12013:1 13204:1 13490:11 13491:6 13492:2.428 13493:0.449 13494:0.449 13495:0.603 13497:1 13507:2 13509:11 
0 0.425089361238002 2909:1 2979:1 6040:1 7375:1 9945:1 10880:1 11096:1 11146:1 11305:1 11896:1 12842:1 13490:2 13491:7 13492:0.867 13493:0.311 13494:0.311 13495:-0.364 13498:1 13507:2 13509:7 13515:1 13527:1 
0.1196721830870451 0 226:1 745:1 1390:2 2599:1 2967:1 6214:1 11923:1 13490:3 13491:8 13492:1.733 13493:0.062 13494:0.062 13495:0.054 13497:1 13502:1 13507:3 13509:5 13513:3 13525:1 13526:1 13527:2 
0.1434838774296345 0.8810862154806438 5548:1 6089:1 6928:1 11427:1 11557:1 13483:1 13490:9 13491:5 13492:0.882 13493:0.334 13494:0.334 13495:0.701 13497:1 13507:5 13508:1 13509:2 
0 0.275246220891914 5182:1 5449:1 6767:1 7045:1 10102:1 10461:1 11482:1 13146:1 13490:8 13491:8 13492:0.095 13493:0.123 13494:0.123 13495:1.021 13497:1 13504:1 13507:4 13509:4 
1 1 1629:1 2967:2 3160:1 4173:1 12628:1 13490:1 13491:7 13492:0.518 13493:0.2 13494:0.2 13495:0.195 13497:1 13507:3 13508:1 13509:3 
0.4837292000712594 1 9534:1 11542:1 11605:1 12374:1 13482:1 13486:1 13491:3 13492:0.192 13493:-0.062 13494:-0.062 13495:0.265 13508:1 13509:5 13526:1 
0 0.07529369666528614 782:1 4652:1 4921:2 6476:1 6480:1 9379:2 9471:1 11480:1 12556:1 13094:1 13108:1 13490:6 13491:8 13492:1.462 13493:-0.096 13494:-0.096 13495:0.422 13502:1 13507:2 13509:10 13524:1 
0.201769780426441 0.4075610195764653 1343:1 1483:1 10220:1 11362:1 11388:1 13484:1 13491:4 13492:0.044 13493:0.2 13494:0.2 13495:0.123 13508:3 13509:1 13526:1 
0.02652738809036091 0.6412735746397716 575:1 3680:1 4896:1 7271:1 8780:1 11366:1 11894:1 12829:1 13482:1 13490:5 13491:6 13492:-0.37 13493:-0.068 13494:-0.068 13495:-0.232 13497:2 13507:2 13508:1 13509:6 13513:1 13526:1 
0 0.04118667019866425 753:1 1892:1 5645:1 5762:1 7131:1 8861:1 10825:1 11648:1 12110:1 13484:1 13490:3 13491:10 13492:0.879 13493:0.472 13494:0.472 13495:-0.151 13497:2 13501:1 13506:1 13507:2 13508:2 13509:3 13512:1 13513:1 13524:2 
0.06353499887982929 0 2599:1 3290:1 4492:1 5235:1 6336:1 8433:1 10184:1 10781:1 12119:1 13486:1 13490:3 13491:12 13492:1.713 13493:0.449 13494:0.449 13495:0.2 13497:2 13501:1 13502:1 13507:4 13508:1 13509:1 13515:1 13523:2 
0.4806365139912115 0 1074:1 1813:1 2968:1 4450:1 8135:2 10859:1 12110:1 12826:1 13483:1 13484:1 13485:2 13490:7 13491:9 13492:-1.384 13493:0.2 13494:0.2 13495:-0.753 13497:1 13502:1 13507:1 13508:1 13509:3 13515:2 13522:1 13526:1 
0.06973141402329747 0.3682356332469889 1179:1 1588:1 3648:1 4067:1 4253:1 5604:1 7824:1 8128:1 13101:1 13482:1 13490:5 13491:4 13492:0.467 13493:-0.121 13494:-0.121 13495:0.2 13507:2 13509:6 13513:1 13526:1 
0 0.5122568951018637 2403:1 4921:1 5498:1 5548:1 6089:1 7010:2 7086:1 8153:1 8193:1 10316:1 10506:1 10750:1 11301:1 11896:1 13126:1 13482:1 13490:4 13491:11 13492:1.681 13493:-0.075 13494:-0.075 13495:-0.183 13497:1 13498:1 13507:3 13508:1 13509:8 13523:1 13524:1 13527:1 
1 1 1806:1 5604:1 6675:1 6952:1 12110:1 13482:1 13490:1 13491:4 13492:-0.44 13493:-0.151 13494:-0.151 13495:0.191 13502:1 13507:2 13513:1 13523:1 
0.4160784668681743 1 1414:1 1532:1 1806:1 5604:1 7995:1 12335:1 13482:1 13490:8 13491:6 13492:0.148 13493:-0.062 13494:-0.062 13495:-0.346 13507:5 13508:2 13509:1 13513:1 13523:1 13524:1 
0.1289832915530501 0.4728888437137906 2123:1 4948:1 5080:1 5433:1 5604:1 6923:1 7719:1 10927:1 12110:1 12317:1 13482:1 13483:1 13490:8 13491:9 13492:2.365 13493:0.361 13494:0.361 13495:0.985 13506:1 13507:7 13509:2 13513:3 13522:1 13526:2 
0.5266620002032355 1 4236:1 4315:1 4863:1 5099:1 5604:1 13482:1 13490:2 13491:4 13492:-0.587 13493:-0.062 13494:-0.062 13495:-0.142 13497:1 13498:1 13507:1 13509:2 13513:1 13523:1 13527:1 
0 1 1172:1 1428:1 2967:1 3927:1 5105:1 7988:1 8633:1 11557:1 11930:1 13490:3 13491:4 13492:0.387 13493:0.183 13494:0.183 13495:-0.127 13504:1 13507:2 13509:7 13512:1 13523:1 
0.6061111270605449 0 2660:1 2968:1 4171:1 4173:1 6088:1 6981:1 8135:1 11391:1 13485:1 13490:3 13491:9 13492:0.65 13493:-0.062 13494:-0.062 13495:-0.364 13497:2 13502:1 13506:1 13508:1 13509:3 13513:1 13515:1 13522:2 13524:1 
0 1 2860:1 4274:1 7766:1 11896:1 12110:1 12799:1 12898:1 13490:1 13491:6 13492:2.193 13493:0.65 13494:0.65 13495:-0.223 13498:1 13502:2 13507:3 13509:1 
0 0.865975141927793 1721:1 9335:1 11896:1 12110:1 12799:1 12894:1 13490:4 13491:3 13492:0.262 13493:-0.151 13494:-0.151 13495:0.26 13498:1 13502:2 13507:3 13509:2 
0.04074928579316985 0 2910:1 3930:1 4756:1 5334:1 5604:1 5974:1 6473:1 7940:1 8089:2 8751:2 10380:1 13482:2 13490:3 13491:8 13492:1.056 13493:0.091 13494:0.091 13495:-1.301 13497:1 13501:1 13507:6 13509:6 13512:1 13513:2 
0 1 2046:1 3219:1 5210:1 9650:1 13491:1 13492:0.268 13493:0.268 13494:0.268 13495:0.268 13507:2 13509:2 13524:1 
0 0.03740723097985933 103:1 4720:1 4727:1 5604:2 6848:1 6904:1 7191:1 7604:1 7768:1 13482:2 13490:5 13491:6 13492:-1.321 13493:-1.648 13494:-1.648 13495:0.58 13507:3 13509:2 13513:2 13515:2 13524:1 13526:2 
0 1 2149:1 2967:1 5501:1 7766:1 12110:1 13486:1 13490:5 13491:5 13492:0.23 13493:-0.096 13494:-0.096 13495:0.183 13502:1 13507:5 13509:2 13512:1 
0.01922110149728316 0.2120873051768806 1438:1 3376:1 4207:1 4253:1 5604:1 7524:1 7894:1 8382:1 9131:1 10371:1 10878:1 11893:1 13094:1 13482:2 13490:4 13491:8 13492:-0.282 13493:0.274 13494:0.274 13495:-0.325 13496:1 13498:1 13506:1 13507:4 13509:3 13513:1 13522:1 13524:1 13527:1 
0.3234989706531787 1 5050:1 8057:1 12110:1 13490:4 13491:3 13492:0.143 13493:-0.151 13494:-0.151 13495:0.094 13507:3 13509:1 13513:1 13526:1 
0 0.03381079511984918 3266:1 6035:1 9419:1 9487:1 11752:1 11938:1 12898:1 13146:1 13491:5 13492:5.218 13493:0.643 13494:0.643 13495:-0.03 13497:1 13502:1 13506:1 13507:2 13509:5 13513:1 13524:1 
0.6163504651339541 1 3117:1 4342:1 6928:1 7321:1 7766:1 11893:1 13490:1 13491:3 13492:1.08 13493:0.449 13494:0.449 13495:0.65 13498:1 13507:2 13509:3 13527:1 
0.3672731809541664 0.686293078926959 2008:1 2967:1 5675:1 6647:1 7281:1 8135:1 12336:1 12958:1 13217:1 13483:1 13485:1 13490:4 13491:11 13492:0.638 13493:1.616 13494:1.616 13495:0.005 13496:1 13497:2 13507:5 13508:1 13509:1 13515:3 
0.01350176530159927 0.3353604348369991 1488:1 2966:1 4068:1 6687:1 12894:1 13490:3 13491:4 13492:-0.104 13493:0.449 13494:0.449 13495:0.153 13497:1 13502:1 13507:3 13509:2 13523:1 
0.4840735084751597 0.9267143505746075 5689:1 6236:1 10385:1 11103:1 11146:1 12110:1 13490:3 13491:6 13492:-1.915 13493:-0.151 13494:-0.151 13495:0.735 13497:1 13507:5 13509:1 13515:1 
0.03490943317119565 0.2428085842488297 2967:1 4986:1 5381:1 5405:1 5811:2 6313:1 7321:1 12400:1 13470:1 13484:1 13486:1 13490:6 13491:12 13492:-0.5 13493:0.451 13494:0.451 13495:-0.643 13497:1 13507:4 13509:7 13524:1 
0.1262340632589453 0 1014:2 2009:1 4481:1 5433:1 5645:1 8005:1 8135:1 8953:1 10345:1 11542:1 12826:1 13482:1 13485:1 13491:7 13492:-0.064 13493:0.28 13494:0.28 13495:-0.753 13501:1 13507:3 13509:5 13515:1 13522:1 13523:1 
0.1099048620548381 0.6100394730945981 949:1 2022:1 2688:1 2817:1 2968:1 4440:1 8045:1 12722:1 12882:1 13484:1 13490:5 13491:10 13492:2.03 13493:-0.133 13494:-0.133 13495:1.456 13497:2 13502:1 13507:5 13508:2 13509:3 13512:1 13524:1 13525:1 
0 0.2096659018228386 1863:1 5747:1 6222:1 6515:1 8637:1 12704:1 13096:2 13470:1 13490:4 13491:6 13492:0.803 13493:-0.03 13494:-0.03 13495:0.049 13497:2 13502:1 13507:2 13508:1 13509:5 
0.04273458220444247 0.1935057656111711 452:1 1542:1 1952:1 2512:1 6373:1 10862:1 11101:1 12762:1 13490:3 13491:6 13492:2.861 13493:-0.062 13494:-0.062 13495:1.084 13502:2 13507:3 13508:2 13509:4 13512:2 13524:1 13531:1 
0.1892158263164972 0.7185429793500462 249:1 6006:1 6848:1 7719:1 9530:1 11747:1 11908:1 12110:1 12374:1 13168:1 13482:1 13486:1 13490:3 13491:9 13492:-0.352 13493:-0.062 13494:-0.062 13495:-0.096 13497:2 13502:2 13507:5 13508:1 13509:2 13513:1 13515:1 13526:1 
0 0.2128696790187957 1:1 1648:1 2827:1 3723:1 4201:1 4394:1 5430:1 6099:1 6778:1 8083:1 8125:1 9660:1 10316:4 12110:1 12242:1 12273:1 13010:1 13482:1 13484:1 13490:3 13491:13 13492:2.799 13493:0.306 13494:0.306 13495:0.013 13496:1 13498:2 13502:1 13507:6 13508:1 13509:9 13524:1 
0 0.2050441050896443 219:1 760:1 3005:1 5337:1 5604:1 6637:1 6655:1 7427:1 8147:1 10297:1 11540:2 11891:1 13251:1 13482:2 13490:2 13491:11 13492:1.867 13493:0.418 13494:0.418 13495:0.2 13497:1 13502:1 13507:2 13509:9 13513:1 13523:1 
0 0.08630053012136128 875:1 1584:1 1830:1 5302:1 5562:1 9628:1 11048:1 11542:1 11576:1 11933:1 12894:1 13482:1 13490:4 13491:7 13492:1.096 13493:-0.096 13494:-0.096 13495:0.2 13498:1 13502:1 13507:3 13509:7 
0.3886601405978812 0 1235:1 2798:1 4096:1 5157:1 8135:1 8280:1 10190:1 11037:1 11769:1 13108:1 13482:1 13485:1 13490:3 13491:9 13492:-0.35 13493:-0.266 13494:-0.266 13495:-1.62 13496:1 13502:1 13507:5 13509:4 13513:1 13515:1 13522:1 13527:1 
0.4223449180949885 0.8334234724288876 428:1 843:1 1286:1 1870:1 3133:1 4639:1 5520:1 5604:1 6456:1 7604:1 8133:1 8955:1 10454:1 12110:1 13482:1 13490:4 13491:11 13492:-2.592 13493:-0.225 13494:-0.225 13495:-1.663 13502:1 13507:3 13508:1 13509:3 13513:1 13515:1 13525:2 13526:1 13531:1 
0.03056574961410503 1 713:1 2011:1 3133:1 4531:1 5762:1 8953:1 10121:1 11791:1 12132:1 13237:1 13410:1 13482:1 13483:1 13484:1 13490:7 13491:10 13492:0.559 13493:0.058 13494:0.058 13495:-0.596 13497:2 13502:1 13507:4 13508:1 13509:5 13513:1 13526:1 
0 0.5512119142072204 1139:1 2215:1 5112:1 6647:1 6928:1 7140:1 8431:1 9185:1 9243:1 10380:1 11320:1 12040:1 13001:1 13490:4 13491:9 13492:3.157 13493:0.422 13494:0.422 13495:0.422 13496:1 13502:1 13507:1 13508:2 13509:8 13524:1 13527:1 
0 0.401901154032567 1391:1 4420:1 4824:1 7321:1 13482:3 13484:1 13490:10 13491:2 13492:0.631 13493:0.182 13494:0.182 13495:0.449 13497:1 13507:5 13509:4 
0 0.1346120584444994 2720:1 2917:1 2992:1 3852:1 4181:1 5604:1 5724:1 6782:1 8042:1 8083:1 8602:1 12982:1 13482:4 13488:1 13490:6 13491:4 13492:1.564 13493:-0.062 13494:-0.062 13495:0.714 13497:1 13502:1 13507:3 13509:8 13513:1 
0.4433007751813317 0.3677194125764493 5551:1 7259:1 8045:1 9355:1 11037:1 12013:1 12110:1 12572:1 13486:1 13490:3 13491:6 13492:-0.615 13493:0.19 13494:0.19 13495:1.838 13501:1 13502:1 13507:5 13508:1 13509:2 
0.06233691975046473 0.0175549850648043 2388:1 4305:1 4531:1 4610:1 6383:1 6534:1 6926:1 9980:1 10220:1 11204:1 13134:1 13490:4 13491:10 13492:-0.009 13493:-0.31 13494:-0.31 13495:-0.301 13497:1 13507:8 13508:1 13509:2 13524:1 
0.2549401456273351 0.6391380946690447 3078:1 5604:1 5724:1 8042:1 8602:1 9828:1 10380:1 11087:1 13016:1 13482:3 13486:1 13490:2 13491:7 13492:2.504 13493:0.449 13494:0.449 13495:-0.258 13502:1 13507:1 13509:5 13512:1 13513:1 13523:1 13529:1 
0.07645958669831643 0.466437014190767 407:1 3005:1 3774:1 4265:1 4481:1 5846:1 7566:1 8392:1 8987:1 10206:1 10345:1 13482:1 13484:1 13490:7 13491:5 13492:0.016 13493:0.035 13494:0.035 13495:-1.31 13498:1 13502:1 13507:2 13509:7 13515:1 13527:1 
0 0.5471829921612648 2388:1 3449:1 6402:1 7316:1 10096:1 10380:1 12368:1 13482:1 13483:1 13486:1 13490:7 13491:5 13492:3.443 13493:0.334 13494:0.334 13495:0.449 13497:1 13507:2 13509:9 
0.0663940943614645 0.06002082072268677 169:1 622:1 709:1 2472:1 3045:1 6647:1 7140:1 10371:1 10454:1 12607:2 13482:1 13490:1 13491:12 13492:6.979 13493:0.36 13494:0.36 13495:-0.213 13497:2 13502:2 13507:6 13509:5 13523:2 
0 0.1029117311640482 3517:1 4163:1 4863:1 5182:1 8670:1 12898:1 13490:3 13491:5 13492:0.543 13493:-0.539 13494:-0.539 13495:0.603 13502:2 13509:4 13512:1 13515:1 13524:1 
0.2326125401734129 0.4991299067740056 39:1 2671:1 2968:1 5182:1 6131:1 8647:1 9734:1 10688:1 11929:1 12882:1 13251:1 13484:1 13490:5 13491:8 13492:0.861 13493:0.449 13494:0.449 13495:0.019 13502:1 13506:1 13507:3 13508:1 13509:5 13522:1 13524:1 
0.3143054005839279 0.5244609764584846 1225:1 4348:1 5182:1 6131:1 7176:1 9734:1 10235:1 13016:1 13484:1 13490:2 13491:4 13492:0.045 13493:0.197 13494:0.197 13495:-0.221 13502:1 13507:1 13508:1 13509:3 13524:1 13529:1 
0.07562823449171664 0.1171245485489749 4944:1 5140:1 5496:1 5902:1 10529:1 12958:1 13486:2 13490:6 13491:4 13492:0.322 13493:0.01 13494:0.01 13495:0.244 13501:1 13507:4 13509:3 13513:1 13515:1 13526:1 
0.2713989892022134 0.04513812880164584 1305:1 2264:1 2860:1 5235:1 5724:1 6536:1 8042:1 8602:1 8964:1 10371:1 11037:1 11360:1 11749:1 12829:1 12842:1 13490:3 13491:12 13492:0.862 13493:1.131 13494:1.131 13495:0.32 13501:1 13502:2 13507:6 13509:2 13515:1 13524:3 
0 0.3890372174023615 4121:1 4784:1 5090:1 6051:1 6973:1 7988:1 11481:1 12964:1 13289:1 13407:1 13490:4 13491:5 13492:0.907 13493:-0.096 13494:-0.096 13495:0.025 13502:2 13507:2 13509:8 13512:1 13513:1 13524:1 13526:1 
0 0.5554387542054858 1769:1 2046:1 3219:1 3791:1 7863:1 8961:1 10846:1 11292:1 11896:1 11899:1 11978:1 12995:1 13001:1 13484:1 13490:2 13491:5 13492:1.889 13493:-0.062 13494:-0.062 13495:0.451 13507:1 13509:12 13512:2 13513:1 13527:1 
0 0.6195100310998688 1235:1 4456:1 5681:1 6558:1 6846:1 7599:1 10632:1 11933:1 13490:5 13491:9 13492:2.176 13493:-0.096 13494:-0.096 13495:0.075 13496:1 13498:1 13502:3 13507:3 13509:3 
0.1585708557775668 0.6742910516489032 256:1 4185:1 6564:1 7900:1 10044:1 10291:1 11114:1 13490:1 13491:5 13492:0.363 13493:0.049 13494:0.049 13495:0.076 13507:3 13509:3 13523:1 13524:1 
0.227299910188469 0.7151309378897369 379:1 3515:1 4537:1 4727:1 4735:1 6461:1 8253:1 9150:1 11542:1 11715:1 13486:1 13490:2 13491:8 13492:1.261 13493:0.449 13494:0.449 13495:0.2 13507:1 13508:2 13509:7 13513:1 13524:1 13527:1 
0.05302905816161588 0.4839462594743257 5387:1 5604:1 5639:2 6868:1 6904:1 7373:1 8294:1 9333:1 13482:4 13490:6 13491:11 13492:3.697 13493:-0.062 13494:-0.062 13495:0.58 13502:3 13507:5 13509:5 13513:1 
0.5889537425105795 0.05005439542699629 419:1 2888:1 3258:1 4639:1 8045:1 8605:1 10223:1 10761:1 12013:1 12110:1 12124:1 13016:1 13128:1 13490:6 13491:12 13492:-2.071 13493:-0.151 13494:-0.151 13495:-0.476 13496:1 13497:1 13507:6 13509:2 13523:2 13524:1 13529:1 
1 0.5161576595478757 516:1 517:1 520:1 531:2 1974:2 2437:1 2593:1 4531:1 7179:1 12012:1 13482:2 13490:9 13491:6 13492:1.25 13493:-0.096 13494:-0.096 13495:0.432 13502:2 13507:4 13509:7 13523:1 13527:1 
0.5172986408758194 0.1717912335853511 2084:1 2510:1 4912:1 11559:1 11788:1 13490:2 13491:5 13492:0.388 13493:-0.115 13494:-0.115 13495:-0.001 13502:1 13506:1 13507:2 13508:1 13509:1 13512:1 13513:1 13524:1 13526:1 
0.06250964753074914 0.1268871768354966 4920:1 5424:1 5604:1 6038:1 6322:1 8045:1 8135:1 9042:1 10297:1 11715:1 11887:1 12955:1 13373:1 13482:2 13483:1 13484:1 13485:1 13490:6 13491:7 13492:1.621 13493:-0.062 13494:-0.062 13495:1.979 13507:2 13508:2 13509:7 13512:1 13513:1 13515:1 13526:2 
0 0.1420302439786496 1169:1 2780:1 3288:1 4639:2 6443:2 7778:2 8783:1 10352:1 12110:1 12803:1 13108:1 13482:2 13490:6 13491:12 13492:0.562 13493:-0.914 13494:-0.914 13495:0.045 13507:5 13509:8 13523:1 13527:1 
0 0.2552328155256917 578:1 1169:1 2967:1 4868:1 5604:1 7132:1 10437:1 11323:1 11824:1 12013:1 12110:2 13482:1 13484:1 13490:8 13491:12 13492:2.062 13493:0.359 13494:0.359 13495:0.449 13497:3 13501:1 13506:1 13507:3 13509:6 13513:3 13522:1 13526:2 
0.5211181686909158 0.6045645150812421 2698:1 2967:2 6417:1 7916:1 8083:1 12078:1 12110:1 13483:1 13484:1 13490:3 13491:5 13492:-1.221 13493:-0.151 13494:-0.151 13495:-0.392 13498:1 13507:4 13509:3 13513:1 13527:1 
0.277060293435557 0.2462279942792129 361:1 4428:1 5378:1 5604:1 5645:1 7108:1 8210:1 9032:1 9933:1 11503:1 11721:1 11816:1 13132:1 13482:1 13490:4 13491:9 13492:0.993 13493:0.037 13494:0.037 13495:0.814 13501:1 13502:4 13507:3 13508:1 13509:2 13513:1 13526:1 13527:2 
0 0.1102667568380793 312:1 472:1 787:1 1501:1 2403:1 2628:1 3464:1 4622:1 5051:1 9917:1 10335:1 10988:1 11896:1 11978:1 13486:1 13490:2 13491:10 13492:2.802 13493:0.449 13494:0.449 13495:0.263 13498:2 13507:4 13508:1 13509:7 13524:1 
0.01634640241673719 0.1993043457737314 21:1 2025:1 5332:1 5476:1 7824:1 9362:1 10277:1 10371:1 12124:1 13483:1 13484:1 13490:6 13491:1 13492:0.528 13493:0.528 13494:0.528 13495:0.528 13507:2 13509:8 
0 0.2012436634766037 2121:1 4105:1 4674:1 6311:1 10060:1 10506:1 12013:1 13490:1 13491:7 13492:0.562 13493:0.281 13494:0.281 13495:0.2 13502:2 13507:2 13508:2 13509:2 
0 0.5926331794958608 1531:1 1806:1 3261:1 4893:1 6904:1 7069:1 9827:1 12110:1 13484:1 13490:2 13491:7 13492:0.624 13493:-0.956 13494:-0.956 13495:0.276 13507:6 13509:1 13523:1 13524:1 
0.06107160170998693 0.679727372414873 612:1 7662:1 7681:1 7726:1 8599:1 9220:1 9969:1 11294:1 13490:4 13491:4 13492:0.379 13493:-0.096 13494:-0.096 13495:-0.339 13502:1 13507:2 13509:5 13512:1 13523:1 13525:1 
0 0.02408623939152311 1442:1 1897:1 2403:1 2587:1 3215:1 6330:1 6504:1 8025:1 9517:1 10183:1 12132:1 13132:1 13490:1 13491:8 13492:1.5 13493:-0.232 13494:-0.232 13495:0.814 13497:4 13507:1 13508:1 13509:7 13522:1 13524:1 13527:1 
0.009326668680765031 0.1538987335847856 141:1 1195:1 1806:1 2165:1 2955:1 3272:1 4607:1 4882:1 6537:1 6584:1 8863:1 10018:1 13482:1 13484:1 13490:1 13491:10 13492:3.46 13493:0.169 13494:0.169 13495:0.573 13497:1 13502:2 13507:6 13509:5 13512:1 13515:1 
0.1166962745198144 0.8306770813878618 1806:1 2246:1 2967:1 4859:1 5105:1 8158:1 10390:1 12110:1 13490:6 13491:8 13492:0.857 13493:0.183 13494:0.183 13495:0.814 13502:1 13507:8 13509:2 13512:1 13515:1 
0.2145372362890282 0 2403:1 2967:1 5604:2 6784:1 6928:1 10256:1 12013:1 13482:2 13490:6 13491:10 13492:0.614 13493:0.138 13494:0.138 13495:-0.019 13497:1 13502:1 13507:3 13508:1 13509:3 13512:1 13513:4 13523:1 13524:1 13527:2 
0 1 4531:1 4639:1 4719:1 4846:1 13486:2 13490:2 13491:2 13492:0.494 13493:0.449 13494:0.449 13495:0.045 13507:3 13509:2 13524:1 
0 0.3546704388016774 2394:1 4909:1 7869:4 10169:1 11088:1 11101:1 11540:1 13482:4 13483:1 13490:5 13491:5 13492:1.661 13493:0.109 13494:0.109 13495:0.422 13507:1 13508:1 13509:9 13527:1 
0 0.8970877712508445 2292:1 2388:1 2391:1 6604:1 7316:1 7369:1 8243:1 11146:1 12958:1 13490:3 13491:5 13492:1.664 13493:0.029 13494:0.029 13495:1.094 13497:1 13508:1 13509:9 13512:1 
0 0.06846605716133451 1578:1 1813:1 2481:1 4450:1 6164:1 7681:1 7854:1 10874:1 11991:1 13194:1 13490:4 13491:3 13492:0.104 13493:0.041 13494:0.041 13495:0.486 13507:1 13508:1 13509:6 13523:1 
0.1289261306150319 0 288:1 4173:1 4922:1 5983:1 8018:1 9808:1 10553:1 12013:1 12964:2 13490:4 13491:11 13492:1.91 13493:-0.189 13494:-0.189 13495:0.376 13497:1 13507:5 13508:1 13509:3 13526:1 
0.09347063975580189 0 768:1 1287:1 2833:1 4207:1 4591:2 6569:1 7681:1 11896:1 11933:1 12697:1 13094:1 13490:9 13491:7 13492:1.61 13493:0.919 13494:0.919 13495:-0.062 13498:2 13501:1 13502:1 13507:4 13508:1 13509:5 
0 0.1335686410991332 350:1 2751:1 3852:1 5604:1 11896:1 12013:1 12018:1 12799:1 12898:1 13482:2 13484:1 13488:1 13491:8 13492:0.867 13493:0.046 13494:0.046 13495:0.603 13497:1 13498:1 13502:1 13507:1 13508:1 13509:2 13513:1 13523:1 13524:1 13526:1 
0 0.01019122340841875 62:1 692:1 1037:1 2967:1 4261:1 11505:1 12110:1 13483:1 13484:1 13490:4 13491:7 13492:0.9 13493:-0.151 13494:-0.151 13495:-0.171 13502:1 13507:2 13509:1 13515:1 13523:2 
0 1 419:1 6165:1 8045:1 10170:1 10371:1 11865:1 11896:1 12119:1 12982:1 13482:1 13486:1 13490:13 13491:6 13492:0.454 13493:-0.062 13494:-0.062 13495:0.2 13507:3 13509:11 13523:1 
0 0.2342165985529377 799:1 3852:1 5604:1 5875:1 6116:1 6396:1 6848:1 6971:1 10165:1 12013:2 12374:1 13482:2 13488:1 13490:6 13491:11 13492:3.844 13493:-0.067 13494:-0.067 13495:1.083 13497:2 13502:2 13507:6 13509:4 13513:1 13526:1 
0.6436082214963047 1 1800:1 2086:1 4531:1 8045:1 8141:1 8942:1 12799:1 12898:1 13490:3 13491:5 13492:-1.836 13493:-0.248 13494:-0.248 13495:0.586 13507:3 13508:2 13509:2 13523:1 13524:1 
0.1508563076354215 0.5932043444261756 419:1 1172:1 2258:1 3830:1 7248:1 7836:1 7885:1 8083:1 8135:1 10011:1 12110:1 13049:1 13485:1 13490:4 13491:13 13492:1.93 13493:0.573 13494:0.573 13495:0.2 13496:2 13498:1 13502:1 13504:1 13507:3 13509:4 13513:1 13515:1 13527:1 13529:1 
0.2457881435039695 0.4463857696637483 152:1 1021:1 4358:1 4531:1 6334:1 7626:1 10563:1 12005:1 13490:2 13491:6 13492:0.413 13493:-0.658 13494:-0.658 13495:0.727 13497:2 13502:1 13507:1 13508:2 13509:4 13515:1 13527:1 
0 0.1035294554126478 3222:1 3693:1 4863:1 5875:1 7662:1 7726:1 8203:1 9220:1 9650:2 10380:1 13482:1 13490:3 13491:6 13492:2.19 13493:0.422 13494:0.422 13495:0.268 13502:1 13507:3 13509:7 13523:1 
0 0.174453556381423 624:1 2599:1 3705:1 3852:1 5604:1 6817:1 7681:1 8539:1 8649:1 13482:1 13488:1 13490:5 13491:8 13492:2.127 13493:0.613 13494:0.613 13495:0.2 13501:1 13502:1 13507:5 13509:4 13512:1 13513:1 
0.1995465500484245 0 1037:1 1905:1 2709:1 2956:1 2958:1 4944:1 11104:1 11891:1 12110:1 12119:1 13490:6 13491:10 13492:0.567 13493:-0.062 13494:-0.062 13495:0.2 13506:1 13507:2 13508:1 13509:6 13513:2 13522:1 13523:1 13525:1 13526:1 
0 0.1850176791463137 977:1 1639:1 4531:1 4639:1 4887:1 5376:1 7221:1 7719:1 8863:1 10428:1 13490:1 13491:6 13492:1.122 13493:0.1 13494:0.1 13495:0.083 13496:1 13507:3 13508:1 13509:6 13512:1 13523:1 
0.2301985687820712 0.2898238775094085 646:1 2580:1 4645:1 10781:1 11159:1 11542:1 11557:1 12374:1 13482:1 13486:1 13491:7 13492:0.588 13493:-0.062 13494:-0.062 13495:0.276 13497:1 13501:1 13507:1 13508:1 13509:4 13526:1 13527:1 
0.2331010031383545 0.3614709531938754 535:1 573:1 2967:1 3536:1 4531:1 5830:1 6724:1 8153:1 9194:1 10570:1 10825:1 11933:1 12713:1 13373:1 13482:8 13483:1 13490:5 13491:5 13492:2.076 13493:-0.096 13494:-0.096 13495:-0.268 13497:1 13498:1 13502:2 13507:2 13508:1 13509:7 13526:1 13527:1 
0.3168269249847286 0.2255492408405673 2751:1 3471:1 3849:3 4259:1 5347:1 11300:1 12110:1 12894:1 13483:1 13484:1 13490:2 13491:11 13492:-1.807 13493:-0.036 13494:-0.036 13495:-1.233 13497:2 13502:2 13507:4 13509:2 13523:1 13524:1 13525:1 
0 0.1862914691302344 2391:1 2967:1 3852:1 4212:1 4230:1 4626:1 4928:1 8089:1 10988:1 12110:1 12119:1 13227:1 13488:1 13490:2 13491:11 13492:0.822 13493:0.246 13494:0.246 13495:-0.075 13497:2 13505:1 13507:8 13509:5 
0.977096523081219 1 1222:1 5724:1 11896:1 12013:1 12898:1 13190:1 13491:4 13492:1.43 13493:0.138 13494:0.138 13495:0.603 13498:1 13502:1 13507:2 13509:3 13524:1 
0.1391118183745084 0.1101480611487951 1439:1 2279:1 4633:1 5071:1 5604:2 6982:1 7672:1 8089:1 10986:1 12336:1 13237:1 13482:2 13490:3 13491:15 13492:2.283 13493:-0.316 13494:-0.316 13495:0.451 13497:1 13502:1 13507:4 13509:5 13512:1 13513:2 13524:1 13526:1 
0 0.233700890906553 782:1 3852:1 4057:1 5604:1 7618:1 8165:1 9311:1 9920:1 12013:1 12792:1 12894:1 12895:1 13482:2 13488:1 13490:2 13491:14 13492:1.838 13493:0.089 13494:0.089 13495:0.256 13496:1 13497:4 13502:2 13507:6 13508:1 13509:3 13513:1 13523:1 
0.253660521443265 0.2962066576514527 875:1 1014:1 1584:1 2843:1 5604:2 6846:1 7324:1 8379:1 9628:1 11907:1 12694:1 13482:2 13490:1 13491:7 13492:-4.492 13493:-0.062 13494:-0.062 13495:0.075 13502:1 13507:3 13508:1 13509:3 13513:2 13523:1 13526:1 13527:1 
0.2124696737167597 0.04383595554895852 2392:1 4438:1 5604:1 5988:1 10588:1 11803:1 12013:1 12382:1 12406:1 13482:1 13490:3 13491:7 13492:-0.027 13493:-0.924 13494:-0.924 13495:-0.014 13497:1 13507:5 13509:1 13513:1 13515:1 13523:1 
0 0.2386611912579412 2314:1 2967:1 3932:1 4102:1 5405:1 8045:1 9341:1 10825:1 12423:2 12731:1 12958:1 13482:2 13483:1 13484:1 13486:1 13490:4 13491:8 13492:3.07 13493:0.2 13494:0.2 13495:0.512 13497:1 13507:3 13508:2 13509:9 13526:1 
0 0.3773624180631274 787:1 4909:1 10169:1 10371:1 11101:1 11783:1 13490:2 13491:4 13492:1.814 13493:0.449 13494:0.449 13495:-0.312 13502:1 13507:3 13509:3 13523:1 
0 0.132177073740634 2967:1 4173:1 5020:1 5157:1 5604:1 7018:1 12628:1 12947:1 13482:1 13490:4 13491:5 13492:0.644 13493:-0.358 13494:-0.358 13495:0.603 13507:2 13509:4 13513:1 13526:1 
0.3508871576444585 0.6346413436938808 2394:1 3205:1 4645:1 5604:1 5661:1 6834:1 9326:1 12013:1 12110:1 12141:1 13482:2 13486:1 13490:2 13491:10 13492:0.221 13493:0.154 13494:0.154 13495:0.109 13497:1 13507:3 13508:2 13509:4 13513:1 13527:1 
0.2770678840466926 1 6326:1 6556:1 10210:1 11542:1 13490:3 13491:2 13492:-0.224 13493:-0.673 13494:-0.673 13495:0.449 13507:2 13509:3 13513:1 13526:1 
0.009925135571461461 0.3656064475314675 622:1 1014:1 2533:1 5604:1 6647:1 7147:1 9116:1 9185:1 10506:1 12110:1 12513:1 13108:1 13482:1 13490:1 13491:6 13492:1.598 13493:-0.151 13494:-0.151 13495:0.815 13507:4 13509:5 13513:1 13523:1 13526:1 
0 0.01875499499556379 470:1 1428:1 2360:1 2480:1 3618:1 3958:1 8956:1 10570:1 12171:1 12964:1 13490:4 13491:9 13492:1.66 13493:0.182 13494:0.182 13495:0.573 13496:1 13497:1 13498:1 13507:7 13508:2 13509:2 
0 0.6570596967242802 946:1 1765:1 2511:1 4747:1 6113:1 6738:1 7281:1 7988:1 8147:1 9794:1 12709:1 13407:1 13486:2 13490:4 13491:9 13492:4.244 13493:0.017 13494:0.017 13495:0.487 13497:1 13502:2 13507:3 13509:7 13524:1 13525:1 
0 0.1639717561683541 2925:1 4456:1 6236:1 6926:1 7617:1 8760:1 9671:1 11087:1 11978:1 13279:1 13490:2 13491:7 13492:3.464 13493:0.449 13494:0.449 13495:0.473 13502:2 13507:1 13508:1 13509:1 13515:3 13523:1 13524:2 
0 0.5327482707740536 4863:1 6585:1 12657:1 13490:10 13491:3 13492:0.407 13493:0.449 13494:0.449 13495:-0.096 13509:3 13513:1 13527:1 
0 0.2538804734493221 5367:2 5473:1 7395:1 7984:1 9197:1 12110:1 13490:7 13491:8 13492:1.536 13493:0.129 13494:0.129 13495:-0.045 13507:8 13526:1 
0 0.8747392332239473 1002:1 2017:1 2388:1 6402:1 8999:1 11576:1 12110:1 13483:1 13486:2 13490:4 13491:7 13492:-1.185 13493:-0.099 13494:-0.099 13495:0.378 13497:3 13507:4 13509:6 
0.2179068956761845 0.2706762593286186 3367:1 5504:1 8492:1 8639:1 8933:1 9146:1 10291:1 10462:1 11114:1 12110:1 13490:6 13491:10 13492:-2.237 13493:0.165 13494:0.165 13495:0.076 13507:3 13508:1 13509:3 13523:2 13526:1 
0 0.1914437875722493 2967:1 4251:1 5583:1 8331:1 10220:1 10380:1 12966:1 13486:3 13490:5 13491:6 13492:1.09 13493:0.449 13494:0.449 13495:0.183 13497:1 13507:3 13509:2 13515:1 13524:1 13525:2 
0.1088863020191168 0 4039:1 5752:1 5974:1 6311:1 8135:1 11146:1 13237:1 13428:1 13485:1 13490:7 13491:7 13492:-0.626 13493:0.551 13494:0.551 13495:-0.076 13502:1 13507:5 13509:3 13513:2 13515:1 13527:2 
0.01627096063820895 0 1203:1 2566:1 2967:1 3615:1 3813:1 5157:1 6917:1 7440:1 8135:1 8891:1 9484:1 11195:1 12933:1 13485:1 13490:8 13491:9 13492:2.049 13493:0.308 13494:0.308 13495:-0.372 13502:1 13507:7 13509:3 13513:1 13515:1 13526:1 
0.844300457229175 0 787:1 2967:2 3160:1 4173:1 12013:1 13486:1 13491:6 13492:3.035 13493:0.138 13494:0.138 13495:0.195 13497:1 13507:3 13509:4 
0.08238530386203326 0.2504665259544568 1126:1 1222:1 1879:1 3241:1 3950:1 4394:1 4531:1 8314:1 9249:1 10960:1 12488:1 13482:5 13490:4 13491:1 13492:-0.096 13493:-0.096 13494:-0.096 13495:-0.096 13497:1 13502:1 13507:1 13509:11 
0.01955434260537997 0.1220527326710168 624:1 731:1 1356:1 5604:1 6113:1 6971:1 8251:1 9650:1 11540:1 11896:1 12422:1 12863:1 13041:1 13482:1 13483:1 13486:1 13490:4 13491:8 13492:3.165 13493:0.334 13494:0.334 13495:1.083 13498:1 13507:3 13509:8 13512:1 13513:1 13523:1 13526:1 
0.003067333982953742 0.2625972526149057 981:1 2821:1 2967:1 4537:1 6507:1 8311:1 9888:1 11269:1 11447:1 12074:1 13484:1 13486:1 13491:4 13492:0.583 13493:0.449 13494:0.449 13495:0.185 13497:1 13502:1 13507:3 13508:1 13509:5 13520:1 
0 1 4639:1 4778:1 8107:1 11559:1 12110:1 13490:6 13491:5 13492:1.127 13493:0.449 13494:0.449 13495:0.449 13497:1 13507:3 13509:3 
0.1071255619854876 0 40:1 781:1 4433:1 4537:1 8165:1 13194:1 13482:1 13490:3 13491:8 13492:2.149 13493:0.103 13494:0.103 13495:0.512 13497:1 13507:2 13508:1 13509:1 13515:2 13523:1 
0.2669553659156519 0 107:1 368:1 1126:1 1594:1 4921:1 5604:2 6971:1 7242:1 7373:1 8135:1 9062:1 12777:1 13277:1 13482:2 13484:1 13485:1 13490:3 13491:6 13492:0.436 13493:-0.093 13494:-0.093 13495:-0.753 13502:2 13507:2 13509:7 13513:2 13515:1 13526:2 
0.4054306116320774 0.2734755458851055 3507:1 4135:1 5373:1 5380:1 8083:1 8135:1 8451:1 9305:1 10241:1 13485:1 13490:4 13491:9 13492:-0.648 13493:-0.753 13494:-0.753 13495:0.327 13497:1 13498:1 13507:3 13508:3 13509:1 13515:1 13526:1 13527:1 
0.2556225596591607 0.4504180911726186 573:1 3800:1 3842:1 3889:1 5319:1 5996:1 6430:1 7467:1 8025:1 8861:1 11918:1 12110:1 13482:5 13484:1 13489:1 13490:3 13491:6 13492:1.053 13493:-0.151 13494:-0.151 13495:0.449 13502:2 13507:2 13509:4 13513:2 13515:1 13526:2 13527:1 
0.02117765023818024 0.6959704966654306 3376:2 5164:2 6804:1 6952:1 9389:1 11455:1 12996:1 13490:4 13491:10 13492:0.449 13493:-0.062 13494:-0.062 13495:0.128 13497:1 13502:1 13507:2 13508:1 13509:5 13523:1 13524:2 
0.1288999615995035 0.1211165534148651 50:1 975:1 2360:1 2619:1 4639:1 5472:1 8570:1 9616:1 11360:1 11791:1 13482:1 13483:1 13484:1 13490:9 13491:10 13492:-0.294 13493:0.2 13494:0.2 13495:-0.375 13496:1 13497:1 13507:6 13508:2 13509:3 13512:1 13524:1 
0.3405233138259783 0 1757:1 3968:1 5284:1 5525:1 5823:1 6033:1 8135:1 9969:1 11717:1 12933:1 13485:1 13490:2 13491:7 13492:-1.849 13493:-0.594 13494:-0.594 13495:-0.753 13507:4 13509:2 13513:1 13515:2 13525:2 
0.2002395781580333 0.3890697094101286 2876:1 3271:1 5604:1 8135:1 9027:1 11358:1 12013:1 12723:1 13237:1 13482:1 13485:1 13490:2 13491:10 13492:2.126 13493:0.603 13494:0.603 13495:-0.753 13507:3 13509:1 13513:1 13515:2 13522:1 13524:1 13527:1 
0 0.528742676621947 395:1 1090:1 2150:1 5080:1 6782:1 8762:1 13486:1 13490:2 13491:4 13492:1.856 13493:0.449 13494:0.449 13495:-0.001 13502:1 13507:3 13509:4 13515:1 
0.0470652869972998 0.3604033503365993 3726:1 4909:1 6239:1 9671:1 10165:1 11101:1 11783:1 12013:1 12110:1 13490:5 13491:7 13492:1.714 13493:-0.068 13494:-0.068 13495:0.364 13497:1 13502:1 13507:6 13509:3 13523:1 
0.03011263758881055 0.5328396724451084 5051:1 6334:1 10098:1 10380:1 10526:1 12119:1 13410:1 13482:1 13483:1 13484:1 13490:6 13491:2 13492:0.646 13493:0.241 13494:0.241 13495:0.405 13507:3 13509:4 13513:1 13527:1 
0 0.06990341858507952 454:1 2139:1 3395:1 4171:1 4456:1 5157:1 6064:1 6926:1 7988:2 8135:1 10661:1 12181:1 13358:2 13485:1 13490:4 13491:8 13492:2.152 13493:0.59 13494:0.59 13495:-0.753 13496:1 13502:1 13507:1 13509:11 13515:2 
0 0.2307949073465612 1442:1 1688:1 4863:1 8045:1 8416:1 8633:1 10380:1 12110:1 12185:1 13486:1 13490:2 13491:8 13492:0.235 13493:-0.056 13494:-0.056 13495:0.19 13507:6 13509:2 13527:2 
0 0.1415216368993651 2830:1 2967:1 5080:1 5478:1 10380:1 10794:1 13354:1 13484:1 13490:3 13491:5 13492:1.463 13493:0.183 13494:0.183 13495:0.985 13507:4 13509:3 13515:1 
0.1544366429631925 0 419:1 3830:1 4537:1 4962:1 6748:1 7954:1 8331:1 9713:1 11891:1 11896:1 12336:1 12406:1 12898:1 13490:3 13491:9 13492:2.212 13493:0.583 13494:0.583 13495:-0.062 13496:1 13497:1 13498:1 13507:3 13508:2 13509:4 13512:1 13513:1 13524:1 13526:1 13527:1 
0 0.9609625774593585 2729:1 7767:1 8138:1 11896:1 12013:1 13490:1 13491:3 13492:1.317 13493:0.138 13494:0.138 13495:0.433 13498:1 13502:1 13507:1 13509:1 13525:1 13527:1 
0.07207684584480452 0.4603422435838801 2345:1 2925:1 4897:1 4899:1 6040:1 6807:1 7617:1 7619:1 11123:1 12274:1 13490:1 13491:8 13492:1.105 13493:-0.29 13494:-0.29 13495:-0.045 13507:3 13508:1 13509:6 13512:1 13525:1 
0 0.003396629000709226 452:1 1438:1 4170:1 5738:1 6449:1 7568:1 9808:1 9837:1 11396:1 11542:1 11557:1 12110:1 13484:1 13490:2 13491:8 13492:3.08 13493:-0.266 13494:-0.266 13495:0.081 13497:2 13507:3 13508:1 13509:6 13524:2 
0.1655745660453733 0.3284723927338978 1710:1 3527:1 4056:1 5299:1 8135:1 8341:1 8964:1 9784:1 11896:1 12110:1 13484:1 13485:1 13490:5 13491:10 13492:-0.638 13493:-0.756 13494:-0.756 13495:0.449 13497:2 13498:1 13509:7 13513:1 13515:1 13522:1 13524:1 13526:1 
0 0.2790394158308548 1137:1 2312:1 5240:1 5318:1 6353:1 6926:1 9608:1 11978:1 12966:1 13165:1 13482:1 13490:6 13491:6 13492:1.639 13493:-0.096 13494:-0.096 13495:0.109 13502:1 13507:2 13508:1 13509:6 13524:1 
0 0.3075334848307993 2314:1 3361:1 4417:1 5233:1 6136:1 6378:1 7820:1 8497:1 8735:1 10158:1 11082:1 11309:1 11918:1 11937:1 12110:1 13482:8 13490:5 13491:8 13492:0.747 13493:0.097 13494:0.097 13495:0.583 13496:1 13506:1 13507:2 13508:1 13509:8 13513:2 13515:1 13522:2 13523:1 13524:1 13526:1 
0 0.646211554750669 420:1 787:1 1203:1 2603:1 2967:1 5020:1 5604:2 6225:1 7874:1 13482:2 13484:1 13490:2 13491:6 13492:2.118 13493:-0.401 13494:-0.401 13495:1.086 13497:1 13507:2 13509:4 13513:2 13526:2 
0 0.1112258923372398 717:1 1668:1 2968:1 5515:1 9553:1 10291:1 11576:1 12739:1 12933:1 13193:1 13490:4 13491:9 13492:0.931 13493:-0.062 13494:-0.062 13495:-0.068 13497:2 13502:2 13505:1 13507:1 13508:1 13509:5 13513:1 13526:1 
0 0.4781622583652156 76:1 781:1 4922:1 5377:1 5457:1 7117:1 8045:1 8329:1 10380:1 13490:4 13491:6 13492:4.289 13493:0.029 13494:0.029 13495:0.19 13501:1 13507:3 13508:1 13509:2 13523:1 13525:1 
0 0.2774739035005447 1955:1 3055:1 6204:1 8045:1 11896:1 11978:1 13486:1 13491:2 13492:0.85 13493:0.66 13494:0.66 13495:0.19 13498:1 13502:1 13507:1 13509:3 13515:1 
0.343716886711492 0 452:1 1488:1 2966:1 2967:1 4859:1 5675:1 5676:1 7604:1 7699:1 8135:1 12898:1 13485:1 13490:5 13491:11 13492:0.302 13493:0.339 13494:0.339 13495:0.183 13497:1 13507:6 13509:4 13515:1 13522:1 13524:1 
0 0.4452400805369126 1712:1 2596:1 2967:1 4171:1 5157:1 11469:1 13490:4 13491:9 13492:1.069 13493:-0.062 13494:-0.062 13495:-0.098 13497:2 13502:1 13507:2 13508:1 13509:3 13512:1 13513:1 13526:1 
0 0.2448503461121201 974:1 2372:1 2672:1 2968:1 4374:1 4527:1 6370:1 12110:1 13486:1 13490:1 13491:5 13492:0.196 13493:-0.142 13494:-0.142 13495:0.232 13507:4 13508:2 13509:3 
0 0.1756446528428212 1235:1 5604:1 6147:1 6225:1 6971:2 7599:1 13049:1 13482:1 13486:2 13490:2 13491:4 13492:2.301 13493:-0.062 13494:-0.062 13495:1.083 13509:6 13513:1 13526:2 13529:1 
0.2413757789601377 0 3169:1 4639:1 6515:1 9959:1 11542:1 11780:1 11791:1 11933:1 13096:1 13128:1 13482:1 13490:7 13491:11 13492:-0.031 13493:0.684 13494:0.684 13495:0.267 13497:1 13498:1 13506:1 13507:4 13508:1 13509:3 13513:1 13522:1 13524:1 13525:1 
0 0.449715955665119 4633:1 6683:1 8089:1 8135:1 12110:1 12826:1 13483:1 13484:1 13485:1 13490:4 13491:4 13492:0.339 13493:0.674 13494:0.674 13495:-0.151 13507:2 13509:2 13515:1 13522:1 
0.179734557958414 0.1568543870088777 4690:1 5256:1 5604:1 6165:1 9128:1 10170:1 10371:1 11557:1 13482:1 13490:3 13491:5 13492:-0.251 13493:-0.931 13494:-0.931 13495:-0.032 13501:1 13502:1 13507:1 13509:3 13513:2 13524:1 13526:2 
0.07752125185307379 0 3055:1 3969:1 4123:1 4597:1 5921:1 6285:1 10792:1 12336:1 13484:1 13490:3 13491:5 13492:2.203 13493:0.399 13494:0.399 13495:0.573 13502:3 13507:2 13509:3 13515:1 
0.1307657724962632 0 1806:1 2867:1 3295:1 8135:1 9541:1 12110:1 12826:1 13482:1 13485:1 13486:1 13490:3 13491:7 13492:-0.493 13493:-0.062 13494:-0.062 13495:-0.753 13507:2 13509:2 13515:1 13522:1 13523:1 13525:1 
0.1051981899433244 0 281:1 628:1 2063:1 6778:1 8018:1 8125:1 8240:1 8527:1 8827:1 11408:1 11735:1 12018:1 13378:1 13491:6 13492:0.92 13493:-0.321 13494:-0.321 13495:-0.062 13497:1 13507:3 13508:1 13509:9 13524:1 
0 0.3150121653146689 344:1 2042:1 2762:1 3491:1 5376:1 7383:1 8006:1 8018:1 8641:1 9620:1 10060:1 10139:2 13482:1 13486:1 13490:1 13491:8 13492:1.797 13493:-0.363 13494:-0.363 13495:-0.377 13497:1 13507:5 13508:1 13509:7 13526:1 
0 0.2270971148417364 1185:1 2824:1 3645:1 4006:1 4229:1 4827:1 4994:1 9220:1 9474:1 11719:1 11933:1 13490:2 13491:8 13492:0.763 13493:-0.329 13494:-0.329 13495:0.37 13497:1 13498:1 13507:6 13509:2 13515:1 13524:1 
0.07744867888490427 0.2960649445730401 1950:1 4423:1 4639:1 4747:1 7988:1 9674:1 11542:1 11896:1 12366:1 13407:1 13486:3 13490:3 13491:4 13492:0.793 13493:-0.096 13494:-0.096 13495:0.422 13498:1 13507:3 13508:3 13509:4 13526:1 
0.1371857079940282 1 2967:1 5604:1 5724:1 6839:1 7681:1 7719:1 8042:1 8280:1 8602:1 13183:1 13482:1 13490:1 13491:6 13492:0.938 13493:0.183 13494:0.183 13495:0.474 13507:2 13509:5 13513:3 13524:1 13526:1 13527:2 
0 0.3760581540760426 3726:1 5150:1 6088:1 7354:1 7355:1 7681:1 8329:1 8338:1 12254:1 13490:6 13491:5 13492:0.917 13493:0.603 13494:0.603 13495:-0.425 13502:2 13507:2 13509:5 13523:1 13525:1 
0.2464193901775245 0.6923361192876073 1130:1 1998:1 8135:1 11391:1 11708:1 11896:1 12013:1 12277:2 12892:1 13410:1 13485:1 13490:6 13491:10 13492:-2.608 13493:-0.096 13494:-0.096 13495:0.706 13498:1 13502:1 13506:1 13507:2 13509:2 13513:3 13515:1 13522:1 13523:1 13524:1 13525:1 13526:1 
0.5752225004039162 0.9648799275785441 446:1 1184:1 2012:1 2984:1 5806:1 6515:1 8953:1 9143:1 11542:1 13096:2 13490:6 13491:11 13492:-0.848 13493:-0.096 13494:-0.096 13495:0.451 13502:1 13507:5 13509:6 13512:2 
0.04416880124265378 0.8299872053150423 1079:1 3008:1 4573:1 5049:1 6878:1 8956:1 10535:1 10822:1 10988:1 13424:1 13490:4 13491:5 13492:-0.38 13493:-0.03 13494:-0.03 13495:0.269 13497:2 13507:3 13508:1 13509:5 13523:1 
0.08754649444254825 0.2506927713172555 528:1 2391:1 2925:2 4897:1 5761:1 7617:1 11204:1 11675:1 11978:1 13482:1 13490:5 13491:7 13492:1.905 13493:-0.096 13494:-0.096 13495:0.886 13502:2 13507:2 13508:1 13509:6 13523:1 
0.07864984655859635 0.1372390785490807 1:1 63:1 499:1 1736:1 2248:1 2967:1 5610:1 5759:1 7988:1 8147:1 8545:1 12754:1 12980:1 13482:2 13490:4 13491:14 13492:2.127 13493:-0.096 13494:-0.096 13495:-0.643 13497:2 13498:1 13502:2 13507:4 13508:2 13509:5 13512:1 13526:1 13527:1 
0.02784981687777019 0 791:1 2866:1 2967:1 3038:1 4173:1 5157:1 8135:1 10267:1 12423:1 12628:1 13482:2 13485:1 13490:2 13491:9 13492:0.358 13493:-0.062 13494:-0.062 13495:0.603 13497:1 13502:1 13507:3 13509:5 13515:1 
0 0.04712325292976394 1970:1 3130:1 3183:1 4622:1 5696:1 8018:1 10954:1 13482:1 13490:2 13491:8 13492:1.025 13493:-0.155 13494:-0.155 13495:0.426 13497:2 13507:6 13509:2 
0.008393430314926004 0.1998945115617343 2570:1 2797:1 4747:1 5157:1 7958:1 12336:1 12708:1 12968:1 13490:4 13491:4 13492:-0.431 13493:-0.062 13494:-0.062 13495:1.196 13507:3 13508:2 13509:3 
0.3528063150246262 0.2403804656937016 1576:1 4236:1 4566:1 4863:1 7007:1 7743:1 12110:1 12374:1 13482:1 13486:3 13490:4 13491:6 13492:0.088 13493:-0.062 13494:-0.062 13495:0.627 13503:1 13507:3 13509:6 13523:1 
0 1 1373:1 1813:1 1950:1 2967:1 4450:1 6378:1 6923:1 8331:1 8705:1 12110:1 13482:1 13490:7 13491:7 13492:2.073 13493:-0.096 13494:-0.096 13495:0.339 13497:2 13502:1 13507:4 13509:8 13512:1 
0.5117654593205608 0.5457236700262297 1702:1 2910:1 6005:1 6032:1 7495:1 9530:1 11056:1 11316:1 13491:5 13492:-1.731 13493:0.357 13494:0.357 13495:0.324 13496:1 13507:2 13508:1 13509:2 13515:1 13527:1 
0.4275524674805903 0.4980228300597754 352:1 2279:1 4039:1 5584:1 5604:1 6236:1 6774:1 7719:1 8083:1 10291:1 11114:1 11540:1 11896:1 13482:1 13490:2 13491:10 13492:-2.02 13493:0.153 13494:0.153 13495:-0.323 13498:2 13502:1 13506:1 13507:3 13508:1 13509:2 13513:2 13515:1 13522:1 13526:1 
0.1243457642150681 0.3170284959867335 1806:1 2867:1 4859:1 6676:1 11015:1 12110:1 13482:1 13486:2 13490:4 13491:5 13492:1.176 13493:-0.151 13494:-0.151 13495:-0.163 13502:1 13507:5 13509:2 13513:2 13526:1 
0 0.05978472525846835 625:1 2388:1 2967:2 4417:1 4438:1 5157:1 5604:2 6095:1 9828:1 10190:1 13016:1 13410:1 13482:2 13484:1 13490:1 13491:9 13492:-1.27 13493:-0.266 13494:-0.266 13495:0.2 13497:1 13507:2 13509:9 13512:2 13513:2 13523:2 13529:1 
0 1 5604:2 6040:1 8135:1 10196:1 10229:1 11896:1 12826:1 13482:2 13485:1 13486:1 13490:1 13491:3 13492:-0.219 13493:0.569 13494:0.569 13495:-0.035 13498:1 13509:5 13513:2 13515:1 13522:1 13527:1 
0.109481178510005 0.358699446192334 1624:1 3731:1 5675:2 6910:1 7692:1 8851:1 9093:1 10638:1 11788:1 12996:1 13018:1 13482:2 13484:1 13490:3 13491:7 13492:0.567 13493:-0.001 13494:-0.001 13495:0.34 13502:1 13507:4 13509:7 13523:1 
0.3795953365483719 1 312:1 1203:1 5604:1 8083:1 8633:1 11641:1 11769:1 11991:2 13482:1 13490:1 13491:7 13492:1.587 13493:-0.423 13494:-0.423 13495:0.873 13497:1 13498:2 13507:2 13508:2 13509:2 13513:1 
0.1129512715138911 0 1222:1 2437:1 4405:1 5724:1 7604:1 8135:1 8153:1 8243:1 8756:1 11896:1 13190:1 13483:1 13485:1 13490:5 13491:8 13492:-1.046 13493:0.334 13494:0.334 13495:-0.103 13497:2 13498:1 13507:2 13509:7 13515:1 13527:1 
0.1270785295198306 0 66:1 1037:1 1235:1 3392:1 4275:1 5157:1 5593:1 7599:1 8588:1 9442:1 12958:1 13490:2 13491:14 13492:0.03 13493:1.196 13494:1.196 13495:-0.265 13502:1 13507:6 13509:1 13512:1 13523:3 13524:1 13525:1 
0.7492882689874072 1 89:1 5050:1 11300:1 13490:2 13491:3 13492:0.004 13493:0.094 13494:0.094 13495:-0.29 13507:2 13509:2 13524:1 
0.1654314557407969 0.2061328695907376 4531:1 8045:1 8138:1 9657:1 11896:1 12048:1 13486:3 13490:3 13491:7 13492:1.356 13493:0.449 13494:0.449 13495:0.19 13496:2 13498:1 13507:3 13508:2 13509:3 13512:1 13515:1 13523:1 
0.1725700656469375 0.1083133525104016 1218:1 1838:1 3005:1 3215:1 4239:1 4475:1 8025:1 8135:1 8735:1 9142:1 10742:1 11640:1 12826:1 13482:1 13483:1 13485:1 13490:4 13491:10 13492:-0.919 13493:0.569 13494:0.569 13495:0.2 13497:1 13507:2 13509:9 13515:1 13522:1 
0.05441990760638592 0.1538789375629174 151:1 1738:1 2292:1 2649:1 2723:1 3426:1 4271:1 4558:1 5105:1 7493:1 8045:1 8240:1 10102:1 11111:1 11155:1 11675:1 11987:1 12216:1 13285:1 13482:12 13490:5 13491:14 13492:1.396 13493:-0.311 13494:-0.311 13495:0.603 13497:3 13502:1 13504:1 13507:5 13509:12 13524:1 
0.1228142437276982 1 2917:1 2967:1 4255:1 4298:1 5616:1 12110:1 13490:1 13491:4 13492:0.616 13493:0.2 13494:0.2 13495:0.183 13507:2 13509:3 13524:1 
0.317776608897844 1 7492:1 8045:1 11542:1 13490:2 13491:2 13492:0.39 13493:0.2 13494:0.2 13495:0.19 13507:2 13509:3 
0 1 1356:1 1969:1 6757:1 6778:1 8125:1 8147:1 8999:1 10555:1 11715:1 11977:1 11991:1 12074:1 13490:6 13491:8 13492:-0.734 13493:0.474 13494:0.474 13495:-0.038 13497:2 13502:1 13507:2 13508:1 13509:6 13520:1 13522:1 13524:1 
0.3565650097002036 0.7051334532208984 523:1 846:1 1764:1 2967:2 3629:1 3832:1 4859:1 5329:1 6416:1 6417:1 7916:1 11037:1 12110:1 13490:6 13491:9 13492:-1.58 13493:0.183 13494:0.183 13495:-0.822 13501:1 13502:1 13507:7 13509:5 13513:1 13515:1 13526:1 
0 0.9511707339849248 419:1 5051:1 6236:1 6403:1 9833:1 9893:1 10291:1 10858:1 11114:1 11978:1 13490:3 13491:6 13492:3.079 13493:-0.096 13494:-0.096 13495:1.21 13496:1 13502:1 13507:4 13508:1 13509:3 13515:1 13524:1 
0.1928248921458115 0.4078365503691903 680:1 1211:1 4232:1 4645:1 6647:1 7140:1 9665:1 9813:1 9930:1 11678:1 12607:1 12728:1 13146:1 13470:1 13482:1 13490:1 13491:10 13492:0.588 13493:-0.03 13494:-0.03 13495:0.036 13497:2 13502:2 13507:3 13508:3 13509:5 13526:1 
0 0.8486617146052694 736:1 2672:1 2749:1 2968:1 4608:1 5604:1 6236:1 6285:1 8045:1 8089:1 10168:1 11385:1 11896:1 11929:1 13482:2 13491:7 13492:0.605 13493:-0.062 13494:-0.062 13495:0.019 13507:2 13508:1 13509:8 13513:1 13515:2 13524:1 
0.3391238295363189 0.2719197256543465 680:1 704:1 1531:1 1721:1 1842:1 4639:1 4858:1 12110:1 12572:1 12728:1 13486:1 13490:3 13491:9 13492:-0.358 13493:0.449 13494:0.449 13495:0.045 13502:1 13507:5 13508:1 13509:3 13524:1 
0.08698691041413781 0 2025:1 8294:1 9947:1 11764:2 12336:1 13484:1 13490:2 13491:1 13492:0.449 13493:0.449 13494:0.449 13495:0.449 13509:6 
0 0.3814641460608041 2403:1 4887:1 5548:1 5831:1 6089:1 6923:1 7115:1 7681:1 13490:2 13491:5 13492:2.564 13493:0.2 13494:0.2 13495:1.466 13507:2 13509:4 13523:2 13524:1 
0.6164969263161788 0.8057884859577421 5202:1 5975:1 6736:1 7321:1 8135:1 8953:1 9630:1 11893:1 13485:1 13486:1 13491:7 13492:0.526 13493:-0.028 13494:-0.028 13495:0.2 13497:1 13498:1 13508:1 13509:5 13513:1 13515:1 13522:1 13527:1 
0.3818968786947177 0.5708507468898242 539:1 1079:1 5206:1 7524:1 7768:1 10559:1 12110:1 13486:1 13490:4 13491:5 13492:-1.73 13493:-0.184 13494:-0.184 13495:-0.877 13506:1 13507:2 13509:3 13522:1 13523:1 
0.2110643929809231 1 1531:1 2149:1 2967:1 6214:1 7550:1 12078:1 13486:1 13490:2 13491:7 13492:0.928 13493:-0.062 13494:-0.062 13495:0.339 13497:3 13507:3 13509:5 13512:1 
0 0.1948362450631648 2448:1 4863:1 5607:1 7007:1 11698:1 12661:1 13486:1 13490:1 13491:3 13492:0.333 13493:-0.232 13494:-0.232 13495:0.627 13497:1 13509:7 13512:1 13523:1 13527:1 
0 0.8402847211964226 615:1 2805:1 2980:1 8470:1 10721:1 11366:1 12013:1 12078:1 12110:1 12246:1 13482:2 13486:1 13490:9 13491:10 13492:3.136 13493:0.926 13494:0.926 13495:0.138 13497:1 13502:2 13507:1 13508:1 13509:8 13515:1 13526:1 
0.4812701102400566 0.2884896613518712 870:1 2313:1 2372:1 3501:1 4183:1 4843:1 5476:1 5604:2 7221:1 8210:2 12919:1 12958:1 13482:5 13490:5 13491:9 13492:-1.884 13493:-0.197 13494:-0.197 13495:-0.062 13507:2 13509:6 13513:2 13523:1 13524:1 13525:1 13526:1 13527:1 
0.2306732504143697 0.3111818972895328 2861:1 3718:1 3943:1 6058:1 7162:1 8006:1 9455:1 9464:2 9620:1 11721:1 13486:2 13490:1 13491:11 13492:-2.808 13493:-0.002 13494:-0.002 13495:0.037 13497:1 13502:1 13507:7 13508:1 13509:3 13524:1 13526:1 
0.1020037008661168 0.2037611743410015 1203:1 1791:1 2025:1 11443:1 11764:1 13483:1 13490:2 13491:3 13492:0.816 13493:-0.3 13494:-0.3 13495:0.72 13497:1 13502:1 13507:1 13509:4 
0 0.09559364102424908 1428:1 3107:1 3116:1 3718:1 4747:1 7395:1 7988:1 8800:1 11557:1 13128:1 13407:1 13482:1 13490:2 13491:5 13492:1.701 13493:0.336 13494:0.336 13495:0.573 13497:1 13507:1 13509:10 13524:1 
0 0.1461747750136399 2340:1 2481:1 4099:1 5974:1 6710:1 7081:1 8153:1 13490:2 13491:8 13492:1.676 13493:0.197 13494:0.197 13495:0.365 13497:1 13507:6 13513:1 13515:2 
0 0.5983352028928571 3471:1 5347:1 7321:1 8400:1 9101:1 13484:1 13486:1 13490:1 13491:4 13492:0.634 13493:0.449 13494:0.449 13495:0.104 13497:1 13502:1 13507:1 13509:3 13515:1 
0.1451977142260682 0.5554600625280995 3008:1 5206:1 5737:1 5967:1 5974:1 8851:1 9962:1 12932:1 13482:1 13490:5 13491:7 13492:1.407 13493:0.165 13494:0.165 13495:0.147 13502:1 13507:2 13509:5 13512:1 13513:1 13523:1 13527:1 
0.07172449986748415 0.1222883774064752 864:1 1871:1 3361:1 4028:1 4456:1 6588:1 6926:1 8135:1 9638:1 10454:1 12013:1 12119:1 13485:1 13490:2 13491:10 13492:0.272 13493:0.13 13494:0.13 13495:0.59 13497:2 13502:1 13507:2 13509:4 13515:2 13522:1 13523:2 13524:1 
0.03183688803142367 0 1169:1 1334:1 2958:1 4863:1 5182:1 5604:1 6003:1 6026:1 7007:1 9517:1 9734:1 11296:1 11918:1 12110:1 13226:1 13482:1 13490:7 13491:10 13492:0.869 13493:0.132 13494:0.132 13495:0.627 13507:5 13508:1 13509:6 13513:2 13523:1 13526:1 
0 0.1272002431369001 773:1 1988:1 4531:1 6971:1 11933:1 13490:2 13491:2 13492:1.021 13493:-0.062 13494:-0.062 13495:1.083 13498:1 13507:1 13509:4 13523:1 
0.4594608056803275 0.1965043035874239 4707:1 5140:1 5251:1 6782:1 6848:1 7604:1 8135:1 9283:1 11933:1 13482:1 13485:1 13490:5 13491:9 13492:-1.847 13493:-0.096 13494:-0.096 13495:0.88 13498:1 13501:2 13502:4 13507:2 13509:1 13512:1 13513:1 13515:1 13526:1 13527:1 
0 0.3419096497506414 1428:1 2012:1 4410:1 5157:1 5213:1 5512:1 7681:1 8045:2 9282:1 13108:1 13483:1 13486:1 13490:8 13491:5 13492:0.633 13493:0.19 13494:0.19 13495:0.276 13507:3 13508:1 13509:7 13526:1 
0.219803847658844 0.09079098683159516 1559:1 3055:1 4272:1 4578:1 4639:1 5604:2 8534:1 8955:1 10220:1 13249:1 13379:1 13482:2 13491:10 13492:-2.546 13493:0.64 13494:0.64 13495:0.147 13502:1 13507:5 13513:2 13515:2 13523:1 13525:1 13526:1 
0 0.8012212446092251 1222:1 1888:1 3940:1 4313:1 4776:1 5604:1 6102:1 11978:1 13482:2 13490:5 13491:2 13492:0.638 13493:0.438 13494:0.438 13495:0.2 13498:1 13508:1 13509:6 
0.3492482401782346 0.5710461675700202 3414:1 4639:1 7933:1 11309:1 11896:1 12110:1 12829:1 13482:1 13490:6 13491:7 13492:0.224 13493:-0.096 13494:-0.096 13495:-0.151 13497:1 13498:1 13507:2 13509:4 13513:1 13524:1 13526:1 
0.1526201637630004 0.9669385520048109 773:1 4912:1 6616:1 10354:1 11087:1 11711:1 13490:1 13491:5 13492:2.552 13493:-0.285 13494:-0.285 13495:0.989 13497:1 13501:1 13507:3 13509:2 13523:1 
0 0.4713278615476331 782:1 4921:1 5020:1 10861:1 11280:1 13193:1 13194:1 13237:1 13484:1 13490:2 13491:7 13492:4.304 13493:1.005 13494:1.005 13495:0.794 13497:1 13503:1 13507:3 13508:2 13509:1 13523:1 
0 0.1213228250180897 56:1 1169:1 3140:1 5900:1 7874:2 7995:1 8597:1 8602:1 9263:1 9535:1 10380:1 13490:4 13491:8 13492:2.184 13493:-0.096 13494:-0.096 13495:0.389 13502:2 13507:2 13508:1 13509:7 13523:1 13527:1 
0 0.5234849204965427 1077:1 2432:1 4639:1 5476:1 7077:1 8744:1 9561:1 12110:1 13090:1 13484:1 13490:5 13491:8 13492:1.473 13493:0.449 13494:0.449 13495:0.399 13507:4 13509:4 13515:1 
0 0.2907805300878147 4639:1 4859:1 5961:1 11037:1 11323:1 12110:1 13346:1 13490:2 13491:4 13492:0.859 13493:1.226 13494:1.226 13495:-0.163 13501:1 13502:1 13507:5 13509:2 
0.0900823182862755 0.4179536982737043 40:1 304:1 1195:1 2561:1 2796:1 3258:1 3595:1 6584:1 6782:1 8304:1 10988:1 12119:1 13482:1 13486:2 13490:3 13491:8 13492:-0.174 13493:-0.062 13494:-0.062 13495:0.451 13497:1 13501:1 13502:2 13507:1 13509:10 13512:1 13515:1 
0.3884238518761475 0 831:1 4372:1 4434:1 5974:1 7672:1 8135:1 11143:1 11641:1 11769:1 13485:1 13490:5 13491:8 13492:1.991 13493:0.452 13494:0.452 13495:0.785 13506:1 13507:4 13508:1 13509:1 13513:2 13515:2 13522:2 13523:1 
0.3870243798789895 1 2967:1 7375:1 8153:1 11096:1 11469:1 12847:1 13486:1 13490:3 13491:6 13492:-0.125 13493:-0.062 13494:-0.062 13495:-0.075 13497:1 13506:1 13507:1 13508:1 13509:4 13512:1 13513:2 13515:1 13522:1 13527:1 
0 0.06597022802165377 379:1 2974:1 3738:1 4506:1 4537:1 4719:1 11380:1 11877:1 12110:1 13482:1 13486:1 13490:2 13491:8 13492:1.017 13493:-0.062 13494:-0.062 13495:-0.151 13502:1 13507:2 13508:1 13509:5 13515:1 
0 0.4030314422493927 2561:2 4253:1 5679:1 7681:1 8057:2 8446:1 8827:1 10226:1 11896:1 12013:1 12557:1 13490:3 13491:11 13492:2.934 13493:0.727 13494:0.727 13495:0.253 13498:1 13502:1 13507:3 13508:3 13509:6 13523:1 
0.01519191248276326 0 3968:1 4313:1 4843:1 5235:1 8622:1 12110:1 13482:1 13486:7 13490:3 13491:7 13492:0.434 13493:1.481 13494:1.481 13495:-0.507 13497:1 13507:8 13509:4 13527:1 
0 0.01805768611592427 2967:1 4207:1 4887:1 8301:1 10437:1 11114:1 12110:1 13094:1 13410:1 13486:2 13490:8 13491:7 13492:1.701 13493:0.449 13494:0.449 13495:0.076 13502:1 13507:3 13509:5 13513:1 13524:1 13526:1 
0 0.4817534800579276 523:1 2967:1 6417:1 6534:1 7915:1 11391:1 12110:1 12979:1 13490:3 13491:6 13492:2.802 13493:-0.364 13494:-0.364 13495:-0.151 13498:1 13507:2 13509:3 13513:1 13515:1 13526:1 
0.09511681347979875 1 4846:1 6033:1 6326:1 6556:1 13490:2 13491:1 13492:-0.049 13493:-0.049 13494:-0.049 13495:-0.049 13502:1 13507:1 13509:3 13524:1 
0 0.3983585694018495 573:1 2373:1 2967:1 3478:1 3813:1 4250:1 4343:1 4531:1 5108:1 8083:1 8582:1 8917:1 9027:1 10437:1 10741:1 11182:1 13395:1 13410:1 13482:1 13484:1 13490:5 13491:11 13492:3.116 13493:-0.062 13494:-0.062 13495:0.449 13498:1 13502:1 13507:3 13508:4 13509:7 13513:1 13526:2 
0.2379583786741688 0.9205684297073286 2598:1 5604:1 6006:1 12110:1 12243:1 13482:1 13486:1 13490:5 13491:6 13492:1.116 13493:-0.062 13494:-0.062 13495:0.822 13497:1 13501:1 13507:1 13513:1 13524:1 13526:1 
0.8122329705352038 1 491:1 1391:1 3008:1 5604:1 6724:1 12858:1 13482:1 13483:1 13486:1 13490:2 13491:5 13492:-0.308 13493:0.2 13494:0.2 13495:-0.878 13497:2 13507:2 13509:3 13513:1 13515:1 13523:1 
0 0.7146841544244823 7887:2 10693:1 11788:2 13490:5 13491:7 13492:2 13493:0.34 13494:0.34 13495:0.182 13497:2 13501:1 13507:5 13508:2 13509:1 13512:2 
0.2269929301565364 0.0250788878080589 4390:1 4463:1 5501:1 6093:1 6804:1 8853:1 8904:1 13483:2 13484:1 13490:2 13491:7 13492:0.495 13493:0.633 13494:0.633 13495:0.061 13502:1 13507:1 13508:2 13509:2 13523:1 13527:1 
0.09281936885273545 0.2503010038205301 860:1 1099:1 2276:1 2339:1 7509:1 7922:1 8964:1 11212:1 11933:1 13490:5 13491:7 13492:1.822 13493:-0.458 13494:-0.458 13495:2.064 13496:1 13498:1 13502:1 13507:5 13509:2 13515:1 
0.06183724610212808 0.7141714513109414 380:1 5961:1 7558:1 8210:1 9045:1 9220:1 11850:1 12336:1 12791:1 13490:5 13491:6 13492:2.546 13493:-0.096 13494:-0.096 13495:0.422 13507:3 13508:2 13509:4 
0.1650491201245884 0.6496817493326128 787:1 2967:1 4284:1 8240:1 9888:1 12358:1 13490:2 13491:5 13492:1.946 13493:1.313 13494:1.313 13495:0.183 13497:1 13507:5 13509:2 
0.2305427269740061 0.3563469004890645 1825:1 2840:1 3053:1 5396:1 5398:1 9717:1 11772:1 11933:1 13490:6 13491:7 13492:-0.223 13493:0.242 13494:0.242 13495:-0.962 13498:1 13502:2 13507:3 13509:3 13515:1 13522:1 
0 0.4409030719885749 3005:1 7778:1 8135:1 8191:1 12826:1 13482:2 13485:1 13490:2 13491:4 13492:0.218 13493:0.2 13494:0.2 13495:-0.753 13497:1 13502:1 13507:1 13509:3 13515:1 13522:1 
0.1728204970465599 1 3008:1 4102:1 6334:1 6966:1 13490:3 13491:4 13492:1.599 13493:0.512 13494:0.512 13495:0.603 13497:1 13502:1 13508:1 13509:3 
0.3538846103764771 0.1432996314536948 1203:1 2723:1 3887:1 5078:1 5433:1 7531:1 11933:1 11963:1 12967:1 12979:1 13490:3 13491:13 13492:2.164 13493:-2.167 13494:-2.167 13495:0.866 13497:2 13498:1 13501:1 13507:6 13508:1 13509:1 13513:1 13524:1 13526:2 
0 0.1353621419429702 773:1 3338:1 3370:1 4298:1 6616:1 6839:1 6841:1 8135:1 9728:1 11391:1 12013:2 13485:1 13491:17 13492:4.207 13493:1.025 13494:1.025 13495:0.138 13502:2 13507:4 13509:4 13513:1 13515:1 13522:1 13524:1 13527:2 
0.4376052734025047 0.04819325034376241 4008:1 5555:1 5604:1 7681:1 7959:1 8045:1 8135:1 10982:1 12314:1 12464:1 12826:1 13482:1 13483:1 13485:1 13490:2 13491:8 13492:1.555 13493:0.308 13494:0.308 13495:-0.753 13507:5 13508:1 13509:3 13513:1 13515:1 13522:1 
0.1400268776700521 0.5518048763311492 3205:1 4472:1 4531:1 5604:1 5661:1 7440:1 8045:1 9127:1 12392:1 13121:1 13482:2 13486:2 13490:6 13491:10 13492:0.991 13493:-0.062 13494:-0.062 13495:0.498 13497:2 13507:4 13508:1 13509:3 13513:2 13515:1 13524:1 13526:2 13527:1 
0.1816269817758753 0.3166155295925116 1439:1 6039:1 6101:1 7824:1 8083:1 8602:1 8647:1 10181:1 13016:1 13126:1 13483:1 13490:4 13491:10 13492:0.94 13493:0.141 13494:0.141 13495:0.119 13497:3 13498:1 13502:1 13506:1 13507:3 13509:4 13512:1 13513:1 13522:1 13529:1 
0.2216218613581323 0.3485359989617551 3547:2 6148:1 6644:1 6936:1 9125:1 11896:1 12166:1 13339:1 13482:2 13486:2 13490:1 13491:7 13492:-0.098 13493:0.062 13494:0.062 13495:-0.062 13497:3 13498:1 13507:1 13508:1 13509:7 13527:1 
0.2774053701167142 0.6479402022826952 5409:1 5476:1 12627:1 13108:1 13490:2 13491:4 13492:0.65 13493:0.276 13494:0.276 13495:-0.142 13507:3 13509:1 13523:1 13526:1 
0 0.06967376467322998 294:1 957:1 2352:1 6326:1 7782:1 8045:1 8769:1 9207:1 10100:1 11294:1 12110:1 13482:3 13486:1 13490:6 13491:5 13492:1.021 13493:0.19 13494:0.19 13495:0.449 13507:4 13509:8 
0 0.4628703778005963 1800:1 4566:1 6928:1 6952:1 8083:1 10430:1 11591:1 12374:1 12442:2 12479:1 13482:3 13490:4 13491:9 13492:-2.071 13493:-0.062 13494:-0.062 13495:-0.019 13497:2 13498:1 13507:4 13509:5 13512:1 13523:1 13525:1 13527:1 
0 0.120332570906673 1172:1 2297:1 2613:1 3298:1 3625:1 3913:1 7472:1 9027:1 9363:1 9609:1 13490:4 13491:8 13492:1.633 13493:0.422 13494:0.422 13495:0.2 13497:1 13502:1 13504:1 13507:2 13508:1 13509:5 13512:1 13522:1 13525:1 
0.4651210348401923 0.8741233269443091 484:1 2568:1 4771:1 5099:1 5302:1 5645:1 6846:1 8083:1 8605:1 8953:1 10345:1 10506:1 12119:1 13484:1 13490:2 13491:11 13492:-0.656 13493:-0.194 13494:-0.194 13495:0.049 13496:1 13497:1 13498:1 13501:1 13506:1 13507:3 13509:4 13513:1 13515:1 13522:2 13527:1 
0.03823105305287635 1 28:1 312:1 4342:1 5454:1 6469:1 12450:1 13482:3 13486:1 13490:6 13491:6 13492:1.178 13493:0.603 13494:0.603 13495:0.603 13497:1 13498:1 13502:1 13507:2 13509:6 
0 0.6296236585726704 4735:2 7536:2 12148:1 12634:1 13490:4 13491:12 13492:0.411 13493:0.736 13494:0.736 13495:-0.172 13497:6 13506:1 13507:4 13509:3 13512:2 13513:1 13524:2 
0 0.05813437561591218 312:1 4102:1 6152:1 7842:1 10011:1 10371:1 10871:1 11688:1 11905:1 12979:1 13486:1 13490:1 13491:6 13492:4.421 13493:0.489 13494:0.489 13495:0.512 13497:1 13498:1 13507:1 13508:2 13509:6 13512:1 13522:1 13524:1 
0.2256465729115136 0.5571376787594293 101:1 2967:1 3547:1 4210:1 5551:1 6848:1 7836:1 9717:1 9946:1 10449:1 11542:1 11933:1 13482:3 13490:3 13491:9 13492:1.455 13493:-0.096 13494:-0.096 13495:0.003 13497:2 13498:1 13502:2 13507:2 13508:2 13509:6 
0.9446532117667189 0 1428:1 2403:1 3968:1 4639:1 9282:1 10726:1 12110:1 13483:1 13490:2 13491:8 13492:0.342 13493:0.059 13494:0.059 13495:-0.232 13497:1 13507:5 13509:1 13513:1 13524:1 13525:1 13526:1 
0.1606065057207348 0.7673776845862085 2338:1 2831:1 6093:1 6515:1 10371:1 12898:1 13486:1 13490:5 13491:4 13492:2.034 13493:0.586 13494:0.586 13495:0.765 13507:2 13509:4 13515:1 13524:1 
0.137250234523734 0.6441498993858685 1845:1 3003:1 4639:1 6093:1 6804:1 10100:1 13490:1 13491:4 13492:1.397 13493:0.267 13494:0.267 13495:1.147 13498:1 13502:2 13507:2 13509:3 13523:1 13527:1 
0 0.1244506430916556 2458:1 2967:1 3577:1 4261:1 4298:1 5604:1 6971:1 7854:1 8147:1 8280:1 9809:1 9957:1 11559:1 13482:2 13483:1 13490:2 13491:8 13492:2.768 13493:1.083 13494:1.083 13495:0.686 13497:1 13507:2 13509:8 13513:1 13515:1 13525:1 13526:1 
0.1260860974426235 1 3365:1 10291:1 11114:1 12110:1 13484:1 13486:1 13490:2 13491:3 13492:-0.852 13493:-0.151 13494:-0.151 13495:0.076 13507:1 13509:4 13523:1 13527:1 
0 0.03680473651232743 2963:1 3643:1 4454:1 5457:1 5903:1 6040:1 11150:1 11955:1 13237:1 13490:5 13491:7 13492:3.314 13493:-0.062 13494:-0.062 13495:-0.393 13507:2 13509:9 13513:1 13523:1 13525:1 13526:1 
0 0.6135721954452342 1594:1 5105:1 5157:1 7242:1 10703:1 11170:1 13490:13 13491:2 13492:0.409 13493:0.519 13494:0.519 13495:-0.11 13502:1 13507:5 13509:4 13527:1 
0.05266349713981775 0.198445792882569 1126:1 1428:1 1439:1 5377:1 5604:1 6647:1 6678:1 9282:1 10294:1 10770:1 10977:1 11067:1 13482:3 13486:1 13490:3 13491:11 13492:1.914 13493:0.449 13494:0.449 13495:0.016 13501:1 13502:3 13507:5 13509:4 13513:1 13526:1 
0 0.002031339213478968 1786:1 2824:1 3223:1 4788:1 4857:1 5604:1 5675:1 6904:1 7604:1 8444:1 9464:1 10403:1 11405:1 11894:1 12332:1 13482:1 13484:1 13490:4 13491:13 13492:-1.883 13493:-1.203 13494:-1.203 13495:0.231 13497:1 13502:1 13507:6 13509:4 13513:3 13523:1 13524:1 13525:1 13526:1 13527:2 
0 0.1985515094222189 403:2 3376:1 5051:1 5604:1 6848:1 6971:1 8953:1 10380:1 11096:1 13251:1 13482:1 13490:3 13491:8 13492:2.614 13493:0.401 13494:0.401 13495:0.197 13502:1 13507:2 13508:1 13509:3 13513:1 13515:1 13522:1 13524:1 13526:2 
0.2082191576521417 1 1222:1 2073:1 2411:1 2867:1 4508:1 4531:1 6817:1 8721:1 11016:1 13482:3 13490:3 13491:4 13492:1.418 13493:0.77 13494:0.77 13495:0.422 13497:1 13507:1 13509:7 
0 0.001655719335460548 196:1 2967:1 2968:1 3490:1 4400:1 6402:1 9805:1 10267:1 10380:1 10891:1 11044:1 11345:1 13482:1 13490:4 13491:16 13492:4.131 13493:0.978 13494:0.978 13495:0.58 13497:2 13502:2 13507:6 13508:1 13509:4 13527:1 
0 0.1834258261125974 541:1 1998:1 2073:1 4784:1 4863:1 5028:1 5645:1 8135:1 8147:1 8338:1 10535:1 11301:1 11576:1 11896:1 13484:1 13485:1 13490:6 13491:10 13492:2.972 13493:0.378 13494:0.378 13495:-0.753 13497:1 13498:1 13501:1 13502:1 13507:3 13509:5 13515:1 13525:1 13527:1 
0.6325816086136881 0 98:1 2025:1 2913:1 5295:1 8135:1 11764:1 13485:1 13486:1 13490:3 13491:4 13492:0.128 13493:0.487 13494:0.487 13495:-0.753 13507:3 13509:1 13515:2 13524:1 
0.1121672718824948 1 1072:1 2403:1 4173:1 8135:1 12826:1 13484:1 13485:1 13490:2 13491:4 13492:0.307 13493:0.042 13494:0.042 13495:-0.753 13507:1 13509:2 13515:1 13522:1 13524:1 
0.1133679721780918 0.553164579889055 883:1 1321:1 2340:1 6710:1 7681:1 8289:1 12110:1 13486:1 13490:1 13491:7 13492:1.399 13493:-0.062 13494:-0.062 13495:0.339 13496:1 13507:2 13509:7 
0.02080801418582054 0.1016487042705498 1225:1 1398:1 4145:1 5150:1 5182:1 8978:1 9734:1 12669:1 13483:2 13486:1 13490:7 13491:8 13492:1.776 13493:0.136 13494:0.136 13495:-0.03 13497:2 13502:1 13507:4 13508:1 13509:2 13522:1 
0.07020915622238723 1 1578:1 1813:1 2481:1 4450:1 4535:1 5099:1 6164:1 7681:1 7854:1 9249:1 10206:1 10555:1 11991:1 13482:1 13484:1 13490:8 13491:8 13492:-0.453 13493:0.449 13494:0.449 13495:0.137 13497:1 13498:2 13507:4 13508:1 13509:7 13524:1 13527:1 
0 0.2844736135674141 1886:1 1945:2 5504:1 6848:1 8153:1 12903:1 13486:1 13490:2 13491:1 13492:0.038 13493:0.038 13494:0.038 13495:0.038 13497:1 13509:10 
0.003279666948789341 0 1179:1 1529:1 1949:1 2917:1 5604:1 5616:1 8821:1 9929:1 10235:1 12311:1 13129:1 13482:1 13483:1 13490:6 13491:7 13492:0.495 13493:0.451 13494:0.451 13495:0.059 13502:1 13507:4 13508:1 13509:4 13513:2 13526:2 13527:1 
0.1357572666247685 0 2073:1 3224:1 4550:1 4591:1 8527:1 12013:1 12933:1 13094:1 13346:1 13482:1 13483:1 13490:8 13491:7 13492:1.109 13493:0.029 13494:0.029 13495:0.241 13497:1 13507:2 13509:6 13512:1 13513:1 13526:1 
0.1032777769481725 0.1788955300839652 465:1 1058:1 1895:2 2374:2 2561:2 6518:1 10243:1 11896:2 13482:1 13490:7 13491:6 13492:0.639 13493:-0.096 13494:-0.096 13495:0.103 13498:2 13502:2 13507:1 13509:8 13524:1 
0.1452242210068844 0.6583894158826482 106:1 2978:1 6085:1 6198:1 6725:1 7681:1 9148:1 11294:1 12858:1 13410:1 13482:1 13490:8 13491:5 13492:0.596 13493:0.56 13494:0.56 13495:0.381 13502:1 13507:3 13508:1 13509:4 13513:1 13522:1 13523:1 13524:1 
0.5732036306439279 1 2009:1 2112:1 3361:1 4081:1 4639:1 4824:1 6033:1 6825:1 8005:1 13065:1 13482:3 13490:2 13491:3 13492:-0.079 13493:-0.062 13494:-0.062 13495:-0.062 13507:2 13509:8 13531:1 
0 0.5527791608212502 1203:1 1748:1 2660:1 4859:1 6642:1 9474:1 11087:1 13490:1 13491:9 13492:2.665 13493:0.414 13494:0.414 13495:0.603 13497:1 13501:1 13507:4 13509:2 13524:1 
0 0.3730271785780144 174:1 3681:1 4869:1 6637:1 7899:1 11929:1 11978:1 12867:1 13247:1 13417:1 13482:2 13490:4 13491:8 13492:3.082 13493:-0.592 13494:-0.592 13495:0.422 13497:1 13502:1 13507:3 13509:5 13512:1 13524:1 
0.4929703260787486 0.5034425304815001 2352:1 2979:1 8135:1 8589:1 9267:1 11155:1 11542:1 13485:1 13490:6 13491:5 13492:-1.12 13493:0.739 13494:0.739 13495:-0.753 13502:1 13507:3 13509:4 13513:1 13515:2 13522:1 13526:1 13527:1 
1 0 1654:1 3968:1 6404:1 8045:1 8135:1 10280:1 10506:1 12040:1 12803:1 12958:1 13224:1 13485:1 13490:1 13491:7 13492:0.992 13493:0.623 13494:0.623 13495:-0.194 13507:1 13508:2 13509:4 13515:1 13522:1 13526:1 13527:1 
0 0.1814774792371431 2352:1 2452:1 4537:1 4735:1 5450:1 7854:1 8135:1 12110:1 12826:1 13301:1 13484:1 13485:1 13490:4 13491:9 13492:2.081 13493:0.2 13494:0.2 13495:-0.151 13497:1 13507:2 13508:1 13509:3 13515:2 13522:1 13524:1 13526:1 
0.02125880178886959 0.1823880103555207 566:1 3730:1 3867:1 4328:1 9608:1 13469:1 13490:3 13491:1 13492:0.717 13493:0.717 13494:0.717 13495:0.717 13507:1 13509:5 
0 0.01294782234285518 2967:1 3852:1 6614:1 11633:1 11978:1 13197:1 13488:1 13490:6 13491:7 13492:3.131 13493:-0.248 13494:-0.248 13495:0.2 13502:2 13507:4 13509:2 
0.2160771403553049 0.08444692226849583 3928:2 4200:1 5157:1 5247:1 5496:1 10461:1 11620:1 12110:1 12119:1 13482:1 13490:5 13491:7 13492:1.029 13493:-0.151 13494:-0.151 13495:0.22 13496:1 13507:2 13508:2 13509:6 13523:1 
0 0.3668456801724841 2403:1 4531:1 5871:1 6923:1 11094:1 11462:1 11711:1 11712:1 12190:1 13482:1 13490:4 13491:10 13492:4.361 13493:0.449 13494:0.449 13495:0.622 13502:1 13507:4 13508:1 13509:3 13524:1 
0.001329158290203976 0 2088:1 8294:2 8417:1 10124:1 10380:1 13249:1 13433:1 13482:2 13484:1 13490:4 13491:8 13492:1.933 13493:0.449 13494:0.449 13495:0.2 13502:1 13507:2 13508:1 13509:5 13512:1 
0.2254677495050902 0.3515970854457748 1121:1 1416:1 1785:1 4639:1 5645:1 8135:1 8473:1 8953:1 9667:1 12080:1 13485:1 13490:6 13491:7 13492:-0.237 13493:0.097 13494:0.097 13495:0.573 13501:1 13507:6 13509:3 13515:1 
0.1547624826391552 0.4538884941089378 232:1 3743:1 11010:1 12110:1 12933:1 13482:1 13483:1 13486:1 13490:3 13491:4 13492:0.274 13493:-0.151 13494:-0.151 13495:0.296 13507:2 13509:2 13512:1 13513:1 13515:1 13526:1 
0.2363521636443576 0.5259500788793687 1843:1 2784:1 3629:1 4531:1 5604:1 7974:1 8135:1 8278:1 11918:1 13482:1 13485:1 13486:1 13490:2 13491:8 13492:-0.172 13493:0.317 13494:0.317 13495:-0.065 13509:10 13513:2 13515:1 13522:1 13526:1 13527:1 
0 1 4857:1 5266:1 6443:1 10181:1 10597:1 12803:1 13490:1 13491:5 13492:-0.444 13493:0.141 13494:0.141 13495:0.266 13497:1 13507:2 13508:1 13509:2 13523:1 
0.2706247703232451 0.2993230863958607 901:1 2218:1 2388:1 2481:1 6225:1 6236:1 7467:1 7604:1 7961:1 8135:1 8956:1 11899:1 13410:1 13482:1 13483:1 13484:1 13485:1 13490:5 13491:10 13492:-0.176 13493:-1.648 13494:-1.648 13495:0.575 13497:1 13507:4 13509:5 13513:1 13515:2 13523:1 13527:1 
0 0.1404542776450467 1156:1 1842:1 2967:1 3628:1 3804:1 6236:1 6588:1 7588:1 11871:1 12110:1 13482:1 13490:1 13491:8 13492:0.855 13493:-0.401 13494:-0.401 13495:0.537 13497:1 13502:2 13507:3 13508:2 13509:2 13513:1 13515:1 13522:1 13526:1 
0 1 1845:1 3666:1 4229:1 4827:1 7114:1 8153:1 11908:1 13016:1 13490:3 13491:6 13492:0.668 13493:-0.062 13494:-0.062 13495:-0.162 13497:1 13507:4 13509:2 13515:1 13527:1 13529:1 
0 0.2589731979360627 2360:1 5604:1 7886:1 8633:1 10890:1 11079:1 13373:1 13482:1 13490:4 13491:9 13492:2.776 13493:-0.375 13494:-0.375 13495:0.336 13497:1 13502:1 13506:2 13507:3 13508:1 13509:3 13512:1 13513:3 13522:1 13525:1 13526:1 
0.2080495726487314 0.7597885857724596 1712:1 2910:1 4506:1 4598:1 5216:1 5604:1 6690:1 7995:1 11540:2 12158:1 13482:1 13490:6 13491:7 13492:0.337 13493:0.422 13494:0.422 13495:-0.062 13502:1 13507:2 13509:8 13512:1 13513:1 13515:1 13522:1 
0 0.2141146019842182 351:1 781:1 1538:1 2152:1 2432:1 3970:1 5520:1 8431:1 10497:1 10584:1 10673:1 11256:1 13128:1 13482:1 13484:1 13490:6 13491:6 13492:2.212 13493:0.926 13494:0.926 13495:0.83 13497:1 13507:5 13509:6 13524:1 13531:1 
0.1703181715692915 0.173844567603618 103:1 1052:1 5604:1 5719:1 8158:1 10403:1 11270:1 13482:1 13490:4 13491:10 13492:1.346 13493:0.086 13494:0.086 13495:0.394 13497:1 13501:1 13502:3 13507:1 13509:2 13512:1 13513:2 13515:1 13524:1 13527:1 
0 1 3940:1 4082:1 5604:1 6971:1 7322:1 11978:1 13482:1 13490:1 13491:2 13492:0.494 13493:1.083 13494:1.083 13495:-0.589 13498:1 13502:1 13509:4 13526:1 
0 1 1077:1 1967:1 2747:1 3145:1 4391:1 6239:1 7395:2 8153:1 13482:1 13484:1 13490:9 13491:14 13492:4.65 13493:-0.068 13494:-0.068 13495:1.297 13496:1 13497:2 13502:2 13506:1 13507:4 13508:1 13509:1 13513:1 13522:1 13523:1 13526:1 
0 0.2078304442341487 458:1 813:1 5604:1 6525:1 7995:1 8932:1 10217:1 11576:1 12063:1 12257:1 13482:2 13483:1 13490:4 13491:6 13492:-0.081 13493:-0.015 13494:-0.015 13495:-0.084 13507:2 13508:1 13509:5 13513:1 13523:1 13526:1 13527:1 
0 0.147296960966335 593:1 781:1 1538:1 4921:1 5992:1 6129:1 8096:1 8099:1 8152:1 11256:1 11542:1 11706:1 11952:1 12018:1 13126:1 13490:7 13491:8 13492:3.762 13493:0.449 13494:0.449 13495:0.046 13497:1 13507:3 13508:1 13509:8 13523:1 13527:1 
0 0.4717475017118562 361:1 1702:1 1787:1 2403:1 5604:1 8210:1 8742:1 11557:1 12336:1 12788:1 12828:1 13369:1 13482:2 13486:1 13490:4 13491:11 13492:2.212 13493:0.603 13494:0.603 13495:-0.068 13496:1 13497:2 13502:1 13507:2 13508:1 13509:5 13513:1 13524:2 13526:1 
0.07335774042506063 0.6494355500971816 1469:1 2661:1 6056:1 8006:1 8135:1 8956:1 10141:1 11079:1 11542:1 12961:1 13482:1 13485:1 13486:1 13490:2 13491:7 13492:1.368 13493:0.573 13494:0.573 13495:0.603 13507:3 13509:7 13513:1 13515:1 13527:1 
0.0002216668574540259 0.1583338586215733 4123:1 5674:1 7762:1 8772:1 9359:1 9570:1 10485:1 10685:1 12009:1 12423:1 13482:1 13486:1 13490:4 13491:7 13492:-0.193 13493:-0.321 13494:-0.321 13495:0.56 13497:1 13501:1 13507:5 13509:6 13523:1 
0.01147124061844426 0.203253837547668 27:1 1516:1 2554:1 2599:1 3376:1 3990:1 5604:1 7321:1 9689:1 11505:1 12430:1 12623:1 13478:1 13482:1 13490:5 13491:11 13492:2.999 13493:0.041 13494:0.041 13495:1.007 13502:3 13507:5 13509:5 13513:2 13515:1 13524:1 13526:1 
0 0.06901586286145886 758:1 787:1 872:1 3217:1 3532:1 5218:1 6894:1 7681:1 10004:1 12057:1 12185:1 13482:4 13490:6 13491:5 13492:0.15 13493:-1.461 13494:-1.461 13495:0.422 13507:2 13509:9 
0.568923036729687 1 4859:1 5266:1 6443:1 7778:1 11896:1 12110:1 12170:1 13482:1 13483:1 13486:2 13490:3 13491:4 13492:0.331 13493:0.334 13494:0.334 13495:-0.151 13498:1 13501:1 13507:3 13509:5 
0 0.6578520287771944 3014:1 4531:1 4639:1 4659:1 5481:1 5604:1 7597:1 8045:1 13482:1 13490:2 13491:8 13492:0.404 13493:-0.088 13494:-0.088 13495:0.498 13497:1 13507:6 13509:2 13512:1 13513:1 13515:1 13524:1 13527:1 
0.4162150456124057 1 361:1 1702:1 3101:1 5266:1 5604:1 6443:2 7492:1 7854:1 7988:2 11104:1 12110:1 13407:2 13482:1 13483:1 13484:1 13490:3 13491:6 13492:-1.37 13493:0.397 13494:0.397 13495:-0.151 13496:1 13502:1 13507:1 13508:1 13509:8 13513:1 13526:1 
0.04595883851463203 1 2528:1 2967:2 4608:1 10364:1 11212:1 12132:1 13482:1 13490:3 13491:7 13492:0.696 13493:-0.062 13494:-0.062 13495:-0.062 13497:1 13502:2 13507:3 13509:3 
0.1500671775930077 0 1095:1 1256:1 1559:1 1701:1 2967:1 4863:1 5261:1 7004:1 8135:1 8418:1 10461:1 12110:1 12826:1 13482:1 13485:1 13486:1 13490:6 13491:11 13492:-1.336 13493:-0.151 13494:-0.151 13495:-0.277 13507:5 13508:1 13509:5 13515:1 13522:1 13525:2 
0 0.3758115542266439 1169:1 1222:1 3038:1 3765:1 4513:1 6058:1 6518:1 7731:1 11944:1 12958:1 13366:1 13441:1 13482:2 13486:1 13490:2 13491:7 13492:1.477 13493:-0.096 13494:-0.096 13495:0.573 13509:14 
0.05905065842942503 0.2962207544474383 30:1 748:1 755:1 2308:1 4996:1 5759:1 7810:1 9303:2 13482:1 13490:3 13491:9 13492:3.106 13493:-0.096 13494:-0.096 13495:0.422 13497:1 13501:1 13507:4 13509:6 
0 1 1203:1 8153:1 9657:1 10890:1 11037:1 13482:1 13484:1 13486:1 13490:5 13491:6 13492:1.733 13493:-0.023 13494:-0.023 13495:0.284 13497:2 13501:1 13502:1 13507:3 13525:1 
0.3505049146890329 1 872:1 1636:1 5218:1 7604:1 7681:1 8045:1 8135:1 10004:1 12185:1 13484:1 13485:1 13490:4 13491:5 13492:-0.682 13493:-1.648 13494:-1.648 13495:0.573 13502:1 13509:7 13515:1 
0 0.6085750214227837 1:1 976:1 4440:1 5433:1 6733:1 9660:1 11423:1 11542:1 11871:1 12182:1 12966:1 13108:2 13482:1 13486:1 13490:1 13491:10 13492:-0.051 13493:-0.329 13494:-0.329 13495:-0.401 13497:1 13498:1 13507:7 13508:1 13509:5 
0.1676155507821608 0.2230957403612622 2974:1 4381:1 4629:1 4639:1 4788:1 5498:1 8135:1 10145:1 13482:1 13485:1 13490:1 13491:4 13492:1.055 13493:0.423 13494:0.423 13495:1.34 13502:1 13507:1 13509:4 13515:1 13523:1 13525:1 
0.02103989083783182 0.01864386910378309 1003:1 1758:1 2243:1 3001:1 4531:1 4944:1 5239:1 8193:1 10097:1 10242:1 11077:1 11401:1 13482:1 13490:3 13491:6 13492:-1.463 13493:0.345 13494:0.345 13495:0.436 13498:1 13507:3 13508:1 13509:6 13524:1 13527:1 
0.3903486681441664 0.05598480124666926 656:1 2499:1 2798:1 6236:1 6295:1 6384:1 7116:1 12110:1 13058:1 13482:1 13490:8 13491:8 13492:-1.63 13493:-1.62 13494:-1.62 13495:-0.202 13502:1 13507:4 13508:1 13509:2 13515:1 13523:2 13526:1 
0.09838372624025576 0.05702527607849157 1428:1 2380:1 2967:3 5604:1 6214:1 8978:1 11557:1 12199:1 13482:1 13491:4 13492:0.62 13493:0.054 13494:0.054 13495:0.181 13497:1 13507:2 13509:7 13512:1 13513:1 13526:1 
0.062503352519483 0.289374943449674 5443:1 5604:1 5974:1 8629:1 9298:1 9374:1 12110:1 13482:2 13483:1 13490:4 13491:4 13492:0.514 13493:0.065 13494:0.065 13495:0.359 13503:1 13507:3 13509:2 13513:2 
0 0.3675354203738018 368:1 9084:1 10617:1 11540:1 13490:3 13491:4 13492:1.296 13493:-0.096 13494:-0.096 13495:1.157 13502:1 13507:2 13509:1 13527:1 
0.9560133860705907 1 1531:1 5266:1 6443:1 8967:1 10181:1 12110:1 12803:1 13483:2 13484:1 13486:2 13490:4 13491:6 13492:0.212 13493:0.277 13494:0.277 13495:0.266 13507:3 13508:1 13509:4 13523:1 
0.4072854580500298 0.7585019595129797 88:1 11540:1 11795:1 12923:1 13490:1 13491:1 13492:-0.386 13493:-0.386 13494:-0.386 13495:-0.386 13507:1 13508:1 13509:3 
0 0.268685998601016 287:1 361:1 573:1 2388:1 3852:1 5051:1 5604:1 8153:1 9657:1 10027:1 10041:1 13482:3 13486:1 13488:1 13490:6 13491:7 13492:1.513 13493:0.223 13494:0.223 13495:0.405 13497:2 13501:1 13502:3 13507:2 13508:1 13509:4 13513:1 13515:1 13526:1 
0 1 419:1 1126:1 1130:1 5515:1 5604:1 7678:1 10510:1 13410:1 13482:1 13490:4 13491:3 13492:1.061 13493:0.22 13494:0.22 13495:0.392 13496:2 13507:1 13508:1 13509:3 13513:2 13526:2 
0.7492426188601515 0 103:1 2566:1 4298:1 4912:1 5256:1 5604:4 6973:1 8135:2 11087:1 11243:1 12013:2 13482:5 13485:2 13490:2 13491:12 13492:0.715 13493:0.308 13494:0.308 13495:0.138 13497:1 13502:1 13507:3 13509:2 13513:4 13515:3 13522:1 13523:1 13525:1 13526:1 
0 0.7934404585278847 1645:1 8045:1 8565:1 9042:1 9311:1 12336:1 12933:1 12979:1 13484:1 13490:3 13491:5 13492:3.234 13493:2.299 13494:2.299 13495:0.096 13507:5 13509:3 13513:1 
0.08378780318389763 0.134820093735322 80:1 477:1 1855:1 2655:1 4639:1 6443:1 6767:1 8049:1 10192:1 10371:1 12397:1 13124:1 13486:1 13491:11 13492:1.604 13493:0.449 13494:0.449 13495:-0.241 13496:1 13497:1 13501:1 13506:1 13507:1 13508:3 13509:3 13522:1 13523:1 13525:1 13526:1 
0.0534881178218618 0.173957170356177 264:1 4154:1 4196:1 4462:1 5161:1 5865:1 7681:1 8045:1 9660:1 11340:1 11677:1 11896:1 12051:1 12137:1 12182:1 13108:1 13482:1 13490:3 13491:10 13492:1.499 13493:0.19 13494:0.19 13495:0.388 13497:1 13498:1 13502:1 13507:7 13508:2 13509:4 13526:1 
0.3143149707817542 1 2967:1 4834:1 5082:1 6557:1 6836:1 8251:1 12110:1 13482:4 13490:1 13491:3 13492:0.58 13493:-0.062 13494:-0.062 13495:0.183 13501:1 13507:1 13509:4 13515:1 
0.2591389924423134 0.1304718385437192 153:1 1492:1 2441:1 2458:1 2649:1 2664:1 3171:1 6249:1 8842:1 9372:1 10572:1 11670:1 12769:1 13482:1 13491:11 13492:1.367 13493:0.603 13494:0.603 13495:0.603 13502:1 13507:6 13508:1 13509:4 13523:1 13524:1 
0.05855287247926562 0.2225380967937485 118:1 457:1 2619:1 3708:1 4730:1 8979:1 10203:1 11557:1 12336:1 13154:1 13482:1 13490:6 13491:9 13492:1.321 13493:-0.096 13494:-0.096 13495:-0.304 13497:1 13501:1 13502:2 13507:4 13509:4 13523:1 
0.2344007793104446 0.5706668793312271 3374:1 3852:1 5515:1 7670:1 8135:1 11323:1 11325:1 12110:1 13485:1 13488:1 13490:3 13491:8 13492:-1.574 13493:-0.172 13494:-0.172 13495:-0.151 13502:1 13507:4 13508:1 13509:1 13515:1 13524:1 13526:1 
0.2320919501794764 1 2967:2 4128:1 6378:1 6668:1 7681:1 8564:1 11896:1 13486:1 13491:4 13492:-0.552 13493:0.097 13494:0.097 13495:-0.334 13498:1 13501:1 13507:3 13508:1 13509:3 
0.02367827804283335 0.5985015726641117 4639:1 4730:1 6623:1 8153:1 9146:1 11529:1 11627:1 12013:1 12110:1 12119:1 13486:1 13490:5 13491:10 13492:1.629 13493:-0.062 13494:-0.062 13495:0.093 13507:6 13508:1 13509:3 13513:1 13523:1 13527:1 
0.2005021492480741 0.5155617236660139 1867:1 8135:1 12490:1 12826:1 13485:1 13490:2 13491:2 13492:-0.184 13493:0.569 13494:0.569 13495:-0.753 13497:1 13509:2 13515:1 13522:1 
0.1584280774689113 0.8868361190205607 5604:1 5645:1 6638:1 7044:1 7271:1 7619:1 7774:1 9503:1 11110:1 11855:1 13146:1 13482:2 13490:4 13491:9 13492:-2.97 13493:0.2 13494:0.2 13495:-1.31 13497:1 13501:1 13506:1 13507:4 13509:3 13513:1 13522:1 13524:1 13525:1 13526:1 
